<?xml version="1.0"?>
<opencv_storage>
<cascade>
  <stageType>BOOST</stageType>
  <featureType>HAAR</featureType>
  <height>24</height>
  <width>36</width>
  <stageParams>
    <boostType>GAB</boostType>
    <minHitRate>9.9500000476837158e-01</minHitRate>
    <maxFalseAlarm>5.0000000000000000e-01</maxFalseAlarm>
    <weightTrimRate>9.4999998807907104e-01</weightTrimRate>
    <maxDepth>1</maxDepth>
    <maxWeakCount>100</maxWeakCount></stageParams>
  <featureParams>
    <maxCatCount>0</maxCatCount>
    <featSize>1</featSize>
    <mode>BASIC</mode></featureParams>
  <stageNum>15</stageNum>
  <stages>
    <!-- stage 0 -->
    <_>
      <maxWeakCount>7</maxWeakCount>
      <stageThreshold>-1.7328343391418457e+00</stageThreshold>
      <weakClassifiers>
        <_>
          <internalNodes>
            0 -1 111 -1.1395138502120972e-01</internalNodes>
          <leafValues>
            1.1864406615495682e-01 -9.0452963113784790e-01</leafValues></_>
        <_>
          <internalNodes>
            0 -1 207 -9.0160556137561798e-03</internalNodes>
          <leafValues>
            6.2594580650329590e-01 -6.2946331501007080e-01</leafValues></_>
        <_>
          <internalNodes>
            0 -1 145 8.5214912891387939e-02</internalNodes>
          <leafValues>
            2.8517532348632813e-01 -7.4902456998825073e-01</leafValues></_>
        <_>
          <internalNodes>
            0 -1 14 -2.0982973277568817e-02</internalNodes>
          <leafValues>
            5.3340142965316772e-01 -4.1828539967536926e-01</leafValues></_>
        <_>
          <internalNodes>
            0 -1 58 -1.5800340101122856e-02</internalNodes>
          <leafValues>
            7.9162085056304932e-01 -2.6830479502677917e-01</leafValues></_>
        <_>
          <internalNodes>
            0 -1 161 8.8008809834718704e-03</internalNodes>
          <leafValues>
            -2.3412047326564789e-01 6.9514304399490356e-01</leafValues></_>
        <_>
          <internalNodes>
            0 -1 156 -6.2881000339984894e-03</internalNodes>
          <leafValues>
            5.1920706033706665e-01 -3.2363370060920715e-01</leafValues></_></weakClassifiers></_>
    <!-- stage 1 -->
    <_>
      <maxWeakCount>10</maxWeakCount>
      <stageThreshold>-2.2340350151062012e+00</stageThreshold>
      <weakClassifiers>
        <_>
          <internalNodes>
            0 -1 110 -1.6898524761199951e-01</internalNodes>
          <leafValues>
            3.8613861799240112e-01 -8.1965172290802002e-01</leafValues></_>
        <_>
          <internalNodes>
            0 -1 90 2.9791906476020813e-02</internalNodes>
          <leafValues>
            -5.6133145093917847e-01 4.0462422370910645e-01</leafValues></_>
        <_>
          <internalNodes>
            0 -1 12 -1.0771304368972778e-02</internalNodes>
          <leafValues>
            5.4028677940368652e-01 -3.1299817562103271e-01</leafValues></_>
        <_>
          <internalNodes>
            0 -1 140 -4.1699083521962166e-03</internalNodes>
          <leafValues>
            4.8665267229080200e-01 -2.7209594845771790e-01</leafValues></_>
        <_>
          <internalNodes>
            0 -1 174 -3.5204889718443155e-03</internalNodes>
          <leafValues>
            5.2972120046615601e-01 -2.4787610769271851e-01</leafValues></_>
        <_>
          <internalNodes>
            0 -1 154 -3.8361065089702606e-02</internalNodes>
          <leafValues>
            4.4987514615058899e-01 -2.7375569939613342e-01</leafValues></_>
        <_>
          <internalNodes>
            0 -1 52 -5.9139817953109741e-02</internalNodes>
          <leafValues>
            -7.7147102355957031e-01 1.7279127240180969e-01</leafValues></_>
        <_>
          <internalNodes>
            0 -1 179 -1.4596486464142799e-02</internalNodes>
          <leafValues>
            5.1350349187850952e-01 -2.3351117968559265e-01</leafValues></_>
        <_>
          <internalNodes>
            0 -1 60 -1.0284364223480225e-02</internalNodes>
          <leafValues>
            6.0159081220626831e-01 -1.9224686920642853e-01</leafValues></_>
        <_>
          <internalNodes>
            0 -1 103 -2.4155260995030403e-02</internalNodes>
          <leafValues>
            5.0664085149765015e-01 -2.6327577233314514e-01</leafValues></_></weakClassifiers></_>
    <!-- stage 2 -->
    <_>
      <maxWeakCount>16</maxWeakCount>
      <stageThreshold>-1.8859978914260864e+00</stageThreshold>
      <weakClassifiers>
        <_>
          <internalNodes>
            0 -1 105 8.7662316858768463e-02</internalNodes>
          <leafValues>
            -8.3355003595352173e-01 1.0158013552427292e-01</leafValues></_>
        <_>
          <internalNodes>
            0 -1 70 -1.2961848080158234e-01</internalNodes>
          <leafValues>
            3.6298903822898865e-01 -5.2859163284301758e-01</leafValues></_>
        <_>
          <internalNodes>
            0 -1 202 7.2990395128726959e-02</internalNodes>
          <leafValues>
            -2.5276771187782288e-01 5.1878422498703003e-01</leafValues></_>
        <_>
          <internalNodes>
            0 -1 122 -3.6722770892083645e-04</internalNodes>
          <leafValues>
            -6.8684792518615723e-01 1.5294761955738068e-01</leafValues></_>
        <_>
          <internalNodes>
            0 -1 122 1.4765610103495419e-04</internalNodes>
          <leafValues>
            2.4635693430900574e-01 -5.1766639947891235e-01</leafValues></_>
        <_>
          <internalNodes>
            0 -1 50 -4.8890686593949795e-03</internalNodes>
          <leafValues>
            3.8070556521415710e-01 -2.6567441225051880e-01</leafValues></_>
        <_>
          <internalNodes>
            0 -1 11 -8.7822545319795609e-03</internalNodes>
          <leafValues>
            4.1120019555091858e-01 -2.3609539866447449e-01</leafValues></_>
        <_>
          <internalNodes>
            0 -1 39 -1.2233537621796131e-02</internalNodes>
          <leafValues>
            5.0480031967163086e-01 -1.7880757153034210e-01</leafValues></_>
        <_>
          <internalNodes>
            0 -1 233 4.6543320640921593e-03</internalNodes>
          <leafValues>
            -1.7471259832382202e-01 4.6525487303733826e-01</leafValues></_>
        <_>
          <internalNodes>
            0 -1 225 -4.7781420871615410e-03</internalNodes>
          <leafValues>
            5.0460469722747803e-01 -1.4928387105464935e-01</leafValues></_>
        <_>
          <internalNodes>
            0 -1 162 -1.9936267926823348e-04</internalNodes>
          <leafValues>
            -4.3493232131004333e-01 1.9887453317642212e-01</leafValues></_>
        <_>
          <internalNodes>
            0 -1 166 4.9300282262265682e-04</internalNodes>
          <leafValues>
            1.2351905554533005e-01 -7.0237225294113159e-01</leafValues></_>
        <_>
          <internalNodes>
            0 -1 173 5.1739485934376717e-03</internalNodes>
          <leafValues>
            -2.1817006170749664e-01 3.8519406318664551e-01</leafValues></_>
        <_>
          <internalNodes>
            0 -1 200 7.0284999674186110e-04</internalNodes>
          <leafValues>
            1.1362163722515106e-01 -6.1635059118270874e-01</leafValues></_>
        <_>
          <internalNodes>
            0 -1 191 -2.3551592603325844e-03</internalNodes>
          <leafValues>
            3.9175352454185486e-01 -1.9602875411510468e-01</leafValues></_>
        <_>
          <internalNodes>
            0 -1 189 9.0001551434397697e-03</internalNodes>
          <leafValues>
            -1.3313449919223785e-01 6.4183557033538818e-01</leafValues></_></weakClassifiers></_>
    <!-- stage 3 -->
    <_>
      <maxWeakCount>16</maxWeakCount>
      <stageThreshold>-2.1536366939544678e+00</stageThreshold>
      <weakClassifiers>
        <_>
          <internalNodes>
            0 -1 102 -1.8324312567710876e-01</internalNodes>
          <leafValues>
            8.3573490381240845e-02 -8.0327868461608887e-01</leafValues></_>
        <_>
          <internalNodes>
            0 -1 207 -9.1354567557573318e-03</internalNodes>
          <leafValues>
            2.9911598563194275e-01 -5.2524924278259277e-01</leafValues></_>
        <_>
          <internalNodes>
            0 -1 153 -4.5084409415721893e-02</internalNodes>
          <leafValues>
            3.4040582180023193e-01 -2.9363614320755005e-01</leafValues></_>
        <_>
          <internalNodes>
            0 -1 89 9.0641872957348824e-03</internalNodes>
          <leafValues>
            -2.2607779502868652e-01 3.6093744635581970e-01</leafValues></_>
        <_>
          <internalNodes>
            0 -1 224 -7.8732902184128761e-03</internalNodes>
          <leafValues>
            -7.2366249561309814e-01 1.1532592028379440e-01</leafValues></_>
        <_>
          <internalNodes>
            0 -1 175 1.8524916376918554e-03</internalNodes>
          <leafValues>
            -1.6038396954536438e-01 4.5319876074790955e-01</leafValues></_>
        <_>
          <internalNodes>
            0 -1 199 -2.6054307818412781e-04</internalNodes>
          <leafValues>
            -5.0501251220703125e-01 1.4734168350696564e-01</leafValues></_>
        <_>
          <internalNodes>
            0 -1 146 -1.6793955583125353e-03</internalNodes>
          <leafValues>
            3.4976434707641602e-01 -2.3691441118717194e-01</leafValues></_>
        <_>
          <internalNodes>
            0 -1 203 3.4852165263146162e-03</internalNodes>
          <leafValues>
            -1.1355594545602798e-01 6.2294656038284302e-01</leafValues></_>
        <_>
          <internalNodes>
            0 -1 69 1.3327558524906635e-02</internalNodes>
          <leafValues>
            1.1417251080274582e-01 -6.6542744636535645e-01</leafValues></_>
        <_>
          <internalNodes>
            0 -1 211 1.3304283842444420e-02</internalNodes>
          <leafValues>
            -1.4006456732749939e-01 5.5812799930572510e-01</leafValues></_>
        <_>
          <internalNodes>
            0 -1 234 -1.7712847329676151e-03</internalNodes>
          <leafValues>
            -7.3862522840499878e-01 1.0748950392007828e-01</leafValues></_>
        <_>
          <internalNodes>
            0 -1 204 -6.4845598535612226e-04</internalNodes>
          <leafValues>
            3.8186815381050110e-01 -2.0324504375457764e-01</leafValues></_>
        <_>
          <internalNodes>
            0 -1 158 -6.2010326655581594e-04</internalNodes>
          <leafValues>
            -5.3810769319534302e-01 1.3521929085254669e-01</leafValues></_>
        <_>
          <internalNodes>
            0 -1 171 -1.1533498018980026e-01</internalNodes>
          <leafValues>
            -7.8191500902175903e-01 8.3629027009010315e-02</leafValues></_>
        <_>
          <internalNodes>
            0 -1 88 1.1124528246000409e-03</internalNodes>
          <leafValues>
            -2.1758435666561127e-01 3.1462240219116211e-01</leafValues></_></weakClassifiers></_>
    <!-- stage 4 -->
    <_>
      <maxWeakCount>14</maxWeakCount>
      <stageThreshold>-1.8167221546173096e+00</stageThreshold>
      <weakClassifiers>
        <_>
          <internalNodes>
            0 -1 237 4.7984309494495392e-03</internalNodes>
          <leafValues>
            -8.4943181276321411e-01 -1.8065433204174042e-01</leafValues></_>
        <_>
          <internalNodes>
            0 -1 13 -5.2343618124723434e-02</internalNodes>
          <leafValues>
            2.2994333505630493e-01 -5.5074620246887207e-01</leafValues></_>
        <_>
          <internalNodes>
            0 -1 186 2.6164802256971598e-03</internalNodes>
          <leafValues>
            -2.1631789207458496e-01 4.9057993292808533e-01</leafValues></_>
        <_>
          <internalNodes>
            0 -1 193 1.1227512732148170e-03</internalNodes>
          <leafValues>
            -1.6457809507846832e-01 5.6234282255172729e-01</leafValues></_>
        <_>
          <internalNodes>
            0 -1 214 -4.1380957700312138e-03</internalNodes>
          <leafValues>
            3.6770388484001160e-01 -2.4131663143634796e-01</leafValues></_>
        <_>
          <internalNodes>
            0 -1 222 -2.2761276923120022e-03</internalNodes>
          <leafValues>
            5.1878827810287476e-01 -1.7054980993270874e-01</leafValues></_>
        <_>
          <internalNodes>
            0 -1 118 3.4063018392771482e-04</internalNodes>
          <leafValues>
            -1.6801430284976959e-01 5.1334774494171143e-01</leafValues></_>
        <_>
          <internalNodes>
            0 -1 65 -1.2938714353367686e-03</internalNodes>
          <leafValues>
            4.5965006947517395e-01 -1.6550961136817932e-01</leafValues></_>
        <_>
          <internalNodes>
            0 -1 125 -1.1434268951416016e-01</internalNodes>
          <leafValues>
            4.1578301787376404e-01 -2.2192603349685669e-01</leafValues></_>
        <_>
          <internalNodes>
            0 -1 0 -5.7955551892518997e-04</internalNodes>
          <leafValues>
            -3.3744144439697266e-01 2.5883802771568298e-01</leafValues></_>
        <_>
          <internalNodes>
            0 -1 81 -3.2740493770688772e-04</internalNodes>
          <leafValues>
            4.8345017433166504e-01 -1.7148213088512421e-01</leafValues></_>
        <_>
          <internalNodes>
            0 -1 92 -1.0127335786819458e-02</internalNodes>
          <leafValues>
            5.4883587360382080e-01 -1.4055506885051727e-01</leafValues></_>
        <_>
          <internalNodes>
            0 -1 127 1.6447806265205145e-03</internalNodes>
          <leafValues>
            -1.6904807090759277e-01 4.4780910015106201e-01</leafValues></_>
        <_>
          <internalNodes>
            0 -1 196 4.5619225129485130e-03</internalNodes>
          <leafValues>
            -1.5276266634464264e-01 4.8435416817665100e-01</leafValues></_></weakClassifiers></_>
    <!-- stage 5 -->
    <_>
      <maxWeakCount>20</maxWeakCount>
      <stageThreshold>-1.8827337026596069e+00</stageThreshold>
      <weakClassifiers>
        <_>
          <internalNodes>
            0 -1 172 7.2861865162849426e-02</internalNodes>
          <leafValues>
            -8.3632445335388184e-01 -2.5784447789192200e-01</leafValues></_>
        <_>
          <internalNodes>
            0 -1 29 -2.2626192867755890e-01</internalNodes>
          <leafValues>
            1.4953367412090302e-01 -5.1695692539215088e-01</leafValues></_>
        <_>
          <internalNodes>
            0 -1 176 -4.0884912596084177e-04</internalNodes>
          <leafValues>
            -5.2207714319229126e-01 1.5546765923500061e-01</leafValues></_>
        <_>
          <internalNodes>
            0 -1 24 2.0563779980875552e-04</internalNodes>
          <leafValues>
            1.3433425128459930e-01 -5.5770540237426758e-01</leafValues></_>
        <_>
          <internalNodes>
            0 -1 157 -2.9355036094784737e-02</internalNodes>
          <leafValues>
            3.3115208148956299e-01 -2.3491977155208588e-01</leafValues></_>
        <_>
          <internalNodes>
            0 -1 109 -2.5306403404101729e-04</internalNodes>
          <leafValues>
            -4.5340698957443237e-01 1.7355638742446899e-01</leafValues></_>
        <_>
          <internalNodes>
            0 -1 91 1.9951306749135256e-03</internalNodes>
          <leafValues>
            1.2003491818904877e-01 -6.2825334072113037e-01</leafValues></_>
        <_>
          <internalNodes>
            0 -1 21 1.9483917858451605e-03</internalNodes>
          <leafValues>
            -1.4552991092205048e-01 5.4821121692657471e-01</leafValues></_>
        <_>
          <internalNodes>
            0 -1 198 8.6485542124137282e-04</internalNodes>
          <leafValues>
            -1.6758252680301666e-01 4.1172945499420166e-01</leafValues></_>
        <_>
          <internalNodes>
            0 -1 205 -9.6375035354867578e-04</internalNodes>
          <leafValues>
            3.8524261116981506e-01 -1.8871319293975830e-01</leafValues></_>
        <_>
          <internalNodes>
            0 -1 231 1.4861004892736673e-03</internalNodes>
          <leafValues>
            1.1983453482389450e-01 -5.6829196214675903e-01</leafValues></_>
        <_>
          <internalNodes>
            0 -1 35 -1.7535887658596039e-02</internalNodes>
          <leafValues>
            2.6429200172424316e-01 -2.4816063046455383e-01</leafValues></_>
        <_>
          <internalNodes>
            0 -1 129 -2.9289582744240761e-04</internalNodes>
          <leafValues>
            3.8830822706222534e-01 -1.6782468557357788e-01</leafValues></_>
        <_>
          <internalNodes>
            0 -1 128 3.6491715582087636e-04</internalNodes>
          <leafValues>
            -2.1307653188705444e-01 3.4410735964775085e-01</leafValues></_>
        <_>
          <internalNodes>
            0 -1 101 -1.7060668324120343e-04</internalNodes>
          <leafValues>
            -4.7239446640014648e-01 1.3838142156600952e-01</leafValues></_>
        <_>
          <internalNodes>
            0 -1 38 -1.5721946954727173e-02</internalNodes>
          <leafValues>
            5.3082954883575439e-01 -1.2711727619171143e-01</leafValues></_>
        <_>
          <internalNodes>
            0 -1 15 -1.2284994125366211e-01</internalNodes>
          <leafValues>
            -5.8383232355117798e-01 1.1560989916324615e-01</leafValues></_>
        <_>
          <internalNodes>
            0 -1 209 -1.9784757751040161e-04</internalNodes>
          <leafValues>
            -4.7720292210578918e-01 1.1128927767276764e-01</leafValues></_>
        <_>
          <internalNodes>
            0 -1 84 -7.6283735688775778e-04</internalNodes>
          <leafValues>
            3.8006645441055298e-01 -1.7910534143447876e-01</leafValues></_>
        <_>
          <internalNodes>
            0 -1 62 2.7724925894290209e-03</internalNodes>
          <leafValues>
            -1.4664080739021301e-01 4.9523276090621948e-01</leafValues></_></weakClassifiers></_>
    <!-- stage 6 -->
    <_>
      <maxWeakCount>17</maxWeakCount>
      <stageThreshold>-1.9164969921112061e+00</stageThreshold>
      <weakClassifiers>
        <_>
          <internalNodes>
            0 -1 96 7.4580222368240356e-02</internalNodes>
          <leafValues>
            -8.1266665458679199e-01 -1.5606936812400818e-01</leafValues></_>
        <_>
          <internalNodes>
            0 -1 5 -5.9735950082540512e-02</internalNodes>
          <leafValues>
            2.2025252878665924e-01 -4.6308070421218872e-01</leafValues></_>
        <_>
          <internalNodes>
            0 -1 163 1.8655561143532395e-04</internalNodes>
          <leafValues>
            1.5628308057785034e-01 -5.9960734844207764e-01</leafValues></_>
        <_>
          <internalNodes>
            0 -1 164 -1.6571208834648132e-04</internalNodes>
          <leafValues>
            -5.1287418603897095e-01 1.8213072419166565e-01</leafValues></_>
        <_>
          <internalNodes>
            0 -1 274 -7.2991376509889960e-04</internalNodes>
          <leafValues>
            -4.7520804405212402e-01 1.6993030905723572e-01</leafValues></_>
        <_>
          <internalNodes>
            0 -1 274 5.4231518879532814e-04</internalNodes>
          <leafValues>
            2.2155857086181641e-01 -4.0369102358818054e-01</leafValues></_>
        <_>
          <internalNodes>
            0 -1 268 7.9612545669078827e-03</internalNodes>
          <leafValues>
            -1.2411233782768250e-01 7.1775931119918823e-01</leafValues></_>
        <_>
          <internalNodes>
            0 -1 240 -6.4955488778650761e-04</internalNodes>
          <leafValues>
            -5.5321162939071655e-01 1.4266635477542877e-01</leafValues></_>
        <_>
          <internalNodes>
            0 -1 63 -1.2282086536288261e-03</internalNodes>
          <leafValues>
            3.8688090443611145e-01 -1.7440435290336609e-01</leafValues></_>
        <_>
          <internalNodes>
            0 -1 242 3.1562399817630649e-04</internalNodes>
          <leafValues>
            1.4276143908500671e-01 -4.4102820754051208e-01</leafValues></_>
        <_>
          <internalNodes>
            0 -1 143 5.8901135344058275e-04</internalNodes>
          <leafValues>
            8.6347468197345734e-02 -7.1253108978271484e-01</leafValues></_>
        <_>
          <internalNodes>
            0 -1 53 -6.5294736996293068e-03</internalNodes>
          <leafValues>
            5.4424560070037842e-01 -1.3300982117652893e-01</leafValues></_>
        <_>
          <internalNodes>
            0 -1 32 -2.6105172000825405e-03</internalNodes>
          <leafValues>
            -8.3007973432540894e-01 7.9848960041999817e-02</leafValues></_>
        <_>
          <internalNodes>
            0 -1 142 -3.4603633685037494e-04</internalNodes>
          <leafValues>
            -7.0268034934997559e-01 7.0735260844230652e-02</leafValues></_>
        <_>
          <internalNodes>
            0 -1 48 -1.7614390235394239e-03</internalNodes>
          <leafValues>
            3.8699641823768616e-01 -1.7899002134799957e-01</leafValues></_>
        <_>
          <internalNodes>
            0 -1 228 -5.8418493717908859e-03</internalNodes>
          <leafValues>
            4.4737243652343750e-01 -1.3561098277568817e-01</leafValues></_>
        <_>
          <internalNodes>
            0 -1 131 -2.6753498241305351e-03</internalNodes>
          <leafValues>
            4.0788474678993225e-01 -1.5245756506919861e-01</leafValues></_></weakClassifiers></_>
    <!-- stage 7 -->
    <_>
      <maxWeakCount>21</maxWeakCount>
      <stageThreshold>-1.9320564270019531e+00</stageThreshold>
      <weakClassifiers>
        <_>
          <internalNodes>
            0 -1 100 3.1449149828404188e-03</internalNodes>
          <leafValues>
            -8.0333334207534790e-01 -2.1001926064491272e-01</leafValues></_>
        <_>
          <internalNodes>
            0 -1 201 5.1643062382936478e-02</internalNodes>
          <leafValues>
            -5.0182932615280151e-01 1.7125481367111206e-01</leafValues></_>
        <_>
          <internalNodes>
            0 -1 253 2.0416346378624439e-03</internalNodes>
          <leafValues>
            -1.3802015781402588e-01 6.6081452369689941e-01</leafValues></_>
        <_>
          <internalNodes>
            0 -1 215 4.5883975690230727e-04</internalNodes>
          <leafValues>
            -1.2156790494918823e-01 4.5603114366531372e-01</leafValues></_>
        <_>
          <internalNodes>
            0 -1 124 -5.9951145201921463e-02</internalNodes>
          <leafValues>
            4.2590299248695374e-01 -1.4478765428066254e-01</leafValues></_>
        <_>
          <internalNodes>
            0 -1 120 -4.3125462252646685e-04</internalNodes>
          <leafValues>
            4.1639626026153564e-01 -1.3732935488224030e-01</leafValues></_>
        <_>
          <internalNodes>
            0 -1 195 -5.0555197522044182e-03</internalNodes>
          <leafValues>
            3.1727281212806702e-01 -1.8045318126678467e-01</leafValues></_>
        <_>
          <internalNodes>
            0 -1 246 2.7630265802145004e-02</internalNodes>
          <leafValues>
            -1.2402045726776123e-01 4.5747897028923035e-01</leafValues></_>
        <_>
          <internalNodes>
            0 -1 95 1.1888416483998299e-03</internalNodes>
          <leafValues>
            -1.1343997716903687e-01 4.5394754409790039e-01</leafValues></_>
        <_>
          <internalNodes>
            0 -1 45 9.0645474847406149e-04</internalNodes>
          <leafValues>
            1.4675618708133698e-01 -5.6649047136306763e-01</leafValues></_>
        <_>
          <internalNodes>
            0 -1 106 -1.4382095541805029e-03</internalNodes>
          <leafValues>
            3.2148286700248718e-01 -1.9644360244274139e-01</leafValues></_>
        <_>
          <internalNodes>
            0 -1 104 8.0538704060018063e-04</internalNodes>
          <leafValues>
            -1.2745870649814606e-01 3.4656435251235962e-01</leafValues></_>
        <_>
          <internalNodes>
            0 -1 226 8.6218089563772082e-05</internalNodes>
          <leafValues>
            1.6000872850418091e-01 -3.1482979655265808e-01</leafValues></_>
        <_>
          <internalNodes>
            0 -1 113 -2.7908973395824432e-02</internalNodes>
          <leafValues>
            2.9833054542541504e-01 -1.7715334892272949e-01</leafValues></_>
        <_>
          <internalNodes>
            0 -1 33 8.8029637932777405e-02</internalNodes>
          <leafValues>
            -1.1217474192380905e-01 5.9029030799865723e-01</leafValues></_>
        <_>
          <internalNodes>
            0 -1 8 -3.9480585604906082e-02</internalNodes>
          <leafValues>
            3.1175702810287476e-01 -1.7170281708240509e-01</leafValues></_>
        <_>
          <internalNodes>
            0 -1 10 -4.7510974109172821e-03</internalNodes>
          <leafValues>
            4.6462106704711914e-01 -1.1110900342464447e-01</leafValues></_>
        <_>
          <internalNodes>
            0 -1 206 -3.6412998451851308e-04</internalNodes>
          <leafValues>
            3.6418238282203674e-01 -1.5136821568012238e-01</leafValues></_>
        <_>
          <internalNodes>
            0 -1 28 1.8281301017850637e-03</internalNodes>
          <leafValues>
            7.9061821103096008e-02 -6.8322032690048218e-01</leafValues></_>
        <_>
          <internalNodes>
            0 -1 27 3.9799935184419155e-03</internalNodes>
          <leafValues>
            6.5581120550632477e-02 -6.2621331214904785e-01</leafValues></_>
        <_>
          <internalNodes>
            0 -1 188 3.5697460407391191e-04</internalNodes>
          <leafValues>
            -1.5658649802207947e-01 3.7030419707298279e-01</leafValues></_></weakClassifiers></_>
    <!-- stage 8 -->
    <_>
      <maxWeakCount>20</maxWeakCount>
      <stageThreshold>-1.9778836965560913e+00</stageThreshold>
      <weakClassifiers>
        <_>
          <internalNodes>
            0 -1 66 4.0952004492282867e-02</internalNodes>
          <leafValues>
            -7.9966384172439575e-01 -2.5735294818878174e-01</leafValues></_>
        <_>
          <internalNodes>
            0 -1 258 -8.8492725044488907e-03</internalNodes>
          <leafValues>
            6.3853198289871216e-01 -3.2289665937423706e-01</leafValues></_>
        <_>
          <internalNodes>
            0 -1 36 -2.1580249071121216e-02</internalNodes>
          <leafValues>
            5.9114229679107666e-01 -1.3550527393817902e-01</leafValues></_>
        <_>
          <internalNodes>
            0 -1 2 -2.4626415967941284e-01</internalNodes>
          <leafValues>
            3.5647925734519958e-01 -1.8776962161064148e-01</leafValues></_>
        <_>
          <internalNodes>
            0 -1 261 -1.0797628783620894e-04</internalNodes>
          <leafValues>
            -3.0373421311378479e-01 1.9235169887542725e-01</leafValues></_>
        <_>
          <internalNodes>
            0 -1 216 -3.8610625779256225e-04</internalNodes>
          <leafValues>
            4.2163348197937012e-01 -1.5358471870422363e-01</leafValues></_>
        <_>
          <internalNodes>
            0 -1 262 1.3426458463072777e-03</internalNodes>
          <leafValues>
            2.2027783095836639e-01 -3.5186162590980530e-01</leafValues></_>
        <_>
          <internalNodes>
            0 -1 264 -1.4342518988996744e-04</internalNodes>
          <leafValues>
            -3.0767008662223816e-01 1.9111143052577972e-01</leafValues></_>
        <_>
          <internalNodes>
            0 -1 134 -6.8601773818954825e-04</internalNodes>
          <leafValues>
            4.0049082040786743e-01 -1.6529941558837891e-01</leafValues></_>
        <_>
          <internalNodes>
            0 -1 227 -9.7615492995828390e-04</internalNodes>
          <leafValues>
            3.6552551388740540e-01 -1.5241761505603790e-01</leafValues></_>
        <_>
          <internalNodes>
            0 -1 31 3.6145371268503368e-04</internalNodes>
          <leafValues>
            9.7489774227142334e-02 -7.7450424432754517e-01</leafValues></_>
        <_>
          <internalNodes>
            0 -1 82 5.4884888231754303e-04</internalNodes>
          <leafValues>
            -1.5264396369457245e-01 4.4591850042343140e-01</leafValues></_>
        <_>
          <internalNodes>
            0 -1 46 -2.7791841421276331e-04</internalNodes>
          <leafValues>
            -2.8424715995788574e-01 2.0529519021511078e-01</leafValues></_>
        <_>
          <internalNodes>
            0 -1 144 5.5194366723299026e-03</internalNodes>
          <leafValues>
            -1.6908101737499237e-01 3.6666205525398254e-01</leafValues></_>
        <_>
          <internalNodes>
            0 -1 183 -1.3619557721540332e-03</internalNodes>
          <leafValues>
            3.8342970609664917e-01 -1.4521077275276184e-01</leafValues></_>
        <_>
          <internalNodes>
            0 -1 248 -9.2768568720202893e-05</internalNodes>
          <leafValues>
            2.6558548212051392e-01 -2.1118965744972229e-01</leafValues></_>
        <_>
          <internalNodes>
            0 -1 166 2.4081591982394457e-04</internalNodes>
          <leafValues>
            1.0416757315397263e-01 -5.7589262723922729e-01</leafValues></_>
        <_>
          <internalNodes>
            0 -1 150 -2.2797356359660625e-03</internalNodes>
          <leafValues>
            4.2648771405220032e-01 -1.3753962516784668e-01</leafValues></_>
        <_>
          <internalNodes>
            0 -1 112 -3.8580298423767090e-02</internalNodes>
          <leafValues>
            2.5730693340301514e-01 -2.1747848391532898e-01</leafValues></_>
        <_>
          <internalNodes>
            0 -1 116 8.6376757826656103e-04</internalNodes>
          <leafValues>
            -1.3807740807533264e-01 3.9375787973403931e-01</leafValues></_></weakClassifiers></_>
    <!-- stage 9 -->
    <_>
      <maxWeakCount>21</maxWeakCount>
      <stageThreshold>-1.9630582332611084e+00</stageThreshold>
      <weakClassifiers>
        <_>
          <internalNodes>
            0 -1 243 5.3309354931116104e-02</internalNodes>
          <leafValues>
            -7.5007331371307373e-01 3.4545454382896423e-01</leafValues></_>
        <_>
          <internalNodes>
            0 -1 94 1.2083660066127777e-01</internalNodes>
          <leafValues>
            -4.0108010172843933e-01 2.7056145668029785e-01</leafValues></_>
        <_>
          <internalNodes>
            0 -1 16 -1.6105746850371361e-02</internalNodes>
          <leafValues>
            6.1852121353149414e-01 -1.5177065134048462e-01</leafValues></_>
        <_>
          <internalNodes>
            0 -1 272 -1.4044078125152737e-04</internalNodes>
          <leafValues>
            -4.9172711372375488e-01 1.6929660737514496e-01</leafValues></_>
        <_>
          <internalNodes>
            0 -1 230 1.5816031373105943e-04</internalNodes>
          <leafValues>
            1.1455121636390686e-01 -5.7492774724960327e-01</leafValues></_>
        <_>
          <internalNodes>
            0 -1 149 -3.3837035298347473e-02</internalNodes>
          <leafValues>
            4.8387154936790466e-01 -1.2404363602399826e-01</leafValues></_>
        <_>
          <internalNodes>
            0 -1 136 2.2614211775362492e-04</internalNodes>
          <leafValues>
            1.2125201523303986e-01 -5.2076506614685059e-01</leafValues></_>
        <_>
          <internalNodes>
            0 -1 137 -4.3013168033212423e-04</internalNodes>
          <leafValues>
            -5.3829598426818848e-01 1.0443401336669922e-01</leafValues></_>
        <_>
          <internalNodes>
            0 -1 23 -7.8108087182044983e-03</internalNodes>
          <leafValues>
            2.0834435522556305e-01 -2.8659480810165405e-01</leafValues></_>
        <_>
          <internalNodes>
            0 -1 126 -1.0781481396406889e-03</internalNodes>
          <leafValues>
            2.9360425472259521e-01 -1.9811370968818665e-01</leafValues></_>
        <_>
          <internalNodes>
            0 -1 117 -3.1233017798513174e-03</internalNodes>
          <leafValues>
            2.9096385836601257e-01 -1.9934593141078949e-01</leafValues></_>
        <_>
          <internalNodes>
            0 -1 18 1.3484215014614165e-04</internalNodes>
          <leafValues>
            1.3341370224952698e-01 -4.0394186973571777e-01</leafValues></_>
        <_>
          <internalNodes>
            0 -1 1 -2.2059193253517151e-01</internalNodes>
          <leafValues>
            -6.0263490676879883e-01 8.9283809065818787e-02</leafValues></_>
        <_>
          <internalNodes>
            0 -1 17 -6.4881481230258942e-02</internalNodes>
          <leafValues>
            -6.2549281120300293e-01 7.7925764024257660e-02</leafValues></_>
        <_>
          <internalNodes>
            0 -1 80 -1.2826775200664997e-03</internalNodes>
          <leafValues>
            6.5586322546005249e-01 -8.9714847505092621e-02</leafValues></_>
        <_>
          <internalNodes>
            0 -1 241 1.4483649283647537e-04</internalNodes>
          <leafValues>
            1.3258321583271027e-01 -4.1518902778625488e-01</leafValues></_>
        <_>
          <internalNodes>
            0 -1 235 -2.5014542043209076e-03</internalNodes>
          <leafValues>
            4.4140455126762390e-01 -1.1594234406948090e-01</leafValues></_>
        <_>
          <internalNodes>
            0 -1 270 -1.3723452575504780e-03</internalNodes>
          <leafValues>
            -7.6961106061935425e-01 7.0988304913043976e-02</leafValues></_>
        <_>
          <internalNodes>
            0 -1 276 1.5836962847970426e-04</internalNodes>
          <leafValues>
            1.9484555721282959e-01 -3.2619246840476990e-01</leafValues></_>
        <_>
          <internalNodes>
            0 -1 182 5.7188910432159901e-04</internalNodes>
          <leafValues>
            -1.6679579019546509e-01 3.2427519559860229e-01</leafValues></_>
        <_>
          <internalNodes>
            0 -1 184 -3.5013939486816525e-04</internalNodes>
          <leafValues>
            4.0835121273994446e-01 -1.4038509130477905e-01</leafValues></_></weakClassifiers></_>
    <!-- stage 10 -->
    <_>
      <maxWeakCount>22</maxWeakCount>
      <stageThreshold>-1.7972275018692017e+00</stageThreshold>
      <weakClassifiers>
        <_>
          <internalNodes>
            0 -1 30 -8.8738754391670227e-02</internalNodes>
          <leafValues>
            -2.7777777984738350e-02 -7.6082348823547363e-01</leafValues></_>
        <_>
          <internalNodes>
            0 -1 194 -1.2669568881392479e-02</internalNodes>
          <leafValues>
            1.5077687799930573e-01 -4.5493724942207336e-01</leafValues></_>
        <_>
          <internalNodes>
            0 -1 266 7.9487645998597145e-03</internalNodes>
          <leafValues>
            -1.2981995940208435e-01 5.7661640644073486e-01</leafValues></_>
        <_>
          <internalNodes>
            0 -1 114 -1.6649913787841797e-01</internalNodes>
          <leafValues>
            4.1978374123573303e-01 -1.2769235670566559e-01</leafValues></_>
        <_>
          <internalNodes>
            0 -1 76 -9.7935000667348504e-05</internalNodes>
          <leafValues>
            2.2957597672939301e-01 -2.2046199440956116e-01</leafValues></_>
        <_>
          <internalNodes>
            0 -1 273 -9.1476360103115439e-04</internalNodes>
          <leafValues>
            -6.9881647825241089e-01 7.4677333235740662e-02</leafValues></_>
        <_>
          <internalNodes>
            0 -1 197 5.6263050064444542e-03</internalNodes>
          <leafValues>
            -1.6230861842632294e-01 2.9772570729255676e-01</leafValues></_>
        <_>
          <internalNodes>
            0 -1 57 6.4251839830831159e-06</internalNodes>
          <leafValues>
            -2.1689301729202271e-01 2.2619238495826721e-01</leafValues></_>
        <_>
          <internalNodes>
            0 -1 6 -4.1960622183978558e-04</internalNodes>
          <leafValues>
            -2.9322689771652222e-01 1.7883944511413574e-01</leafValues></_>
        <_>
          <internalNodes>
            0 -1 74 -3.0453450744971633e-04</internalNodes>
          <leafValues>
            3.2738557457923889e-01 -1.5936920046806335e-01</leafValues></_>
        <_>
          <internalNodes>
            0 -1 139 4.9282191321253777e-04</internalNodes>
          <leafValues>
            9.5224611461162567e-02 -5.3628528118133545e-01</leafValues></_>
        <_>
          <internalNodes>
            0 -1 151 -1.8851747154258192e-04</internalNodes>
          <leafValues>
            2.8980475664138794e-01 -1.7919693887233734e-01</leafValues></_>
        <_>
          <internalNodes>
            0 -1 271 1.2866562465205789e-03</internalNodes>
          <leafValues>
            9.1128461062908173e-02 -6.2090593576431274e-01</leafValues></_>
        <_>
          <internalNodes>
            0 -1 220 -3.3242118661291897e-04</internalNodes>
          <leafValues>
            3.1504771113395691e-01 -1.6281932592391968e-01</leafValues></_>
        <_>
          <internalNodes>
            0 -1 22 -1.1793339625000954e-02</internalNodes>
          <leafValues>
            -6.6632556915283203e-01 8.6368411779403687e-02</leafValues></_>
        <_>
          <internalNodes>
            0 -1 61 -1.8742511747404933e-04</internalNodes>
          <leafValues>
            -3.4139645099639893e-01 1.3849976658821106e-01</leafValues></_>
        <_>
          <internalNodes>
            0 -1 219 8.6320959962904453e-04</internalNodes>
          <leafValues>
            -1.4643976092338562e-01 3.2725855708122253e-01</leafValues></_>
        <_>
          <internalNodes>
            0 -1 260 -1.0399455204606056e-03</internalNodes>
          <leafValues>
            -4.5468920469284058e-01 1.0699895024299622e-01</leafValues></_>
        <_>
          <internalNodes>
            0 -1 177 7.1598442445974797e-06</internalNodes>
          <leafValues>
            -2.0297065377235413e-01 2.2032320499420166e-01</leafValues></_>
        <_>
          <internalNodes>
            0 -1 64 5.5745383724570274e-03</internalNodes>
          <leafValues>
            -7.6546221971511841e-02 6.2313753366470337e-01</leafValues></_>
        <_>
          <internalNodes>
            0 -1 72 -2.4679806083440781e-03</internalNodes>
          <leafValues>
            3.0327335000038147e-01 -1.4542670547962189e-01</leafValues></_>
        <_>
          <internalNodes>
            0 -1 190 3.0157718807458878e-02</internalNodes>
          <leafValues>
            5.8245822787284851e-02 -8.1465011835098267e-01</leafValues></_></weakClassifiers></_>
    <!-- stage 11 -->
    <_>
      <maxWeakCount>25</maxWeakCount>
      <stageThreshold>-1.8069058656692505e+00</stageThreshold>
      <weakClassifiers>
        <_>
          <internalNodes>
            0 -1 170 5.0578840076923370e-02</internalNodes>
          <leafValues>
            -8.3850401639938354e-01 -4.6826758980751038e-01</leafValues></_>
        <_>
          <internalNodes>
            0 -1 252 -5.6543329264968634e-04</internalNodes>
          <leafValues>
            3.6420089006423950e-01 -3.4417966008186340e-01</leafValues></_>
        <_>
          <internalNodes>
            0 -1 68 -6.5870389342308044e-02</internalNodes>
          <leafValues>
            3.2820531725883484e-01 -2.0598506927490234e-01</leafValues></_>
        <_>
          <internalNodes>
            0 -1 98 -4.5716296881437302e-04</internalNodes>
          <leafValues>
            3.2932218909263611e-01 -1.8476927280426025e-01</leafValues></_>
        <_>
          <internalNodes>
            0 -1 159 -2.5513407308608294e-03</internalNodes>
          <leafValues>
            3.3398765325546265e-01 -1.5297043323516846e-01</leafValues></_>
        <_>
          <internalNodes>
            0 -1 185 -3.7592290900647640e-03</internalNodes>
          <leafValues>
            2.1015393733978271e-01 -2.4542923271656036e-01</leafValues></_>
        <_>
          <internalNodes>
            0 -1 239 3.6762626841664314e-03</internalNodes>
          <leafValues>
            9.8837561905384064e-02 -7.6966947317123413e-01</leafValues></_>
        <_>
          <internalNodes>
            0 -1 4 1.1565172462724149e-04</internalNodes>
          <leafValues>
            9.9482841789722443e-02 -3.6154878139495850e-01</leafValues></_>
        <_>
          <internalNodes>
            0 -1 180 2.6345863007009029e-03</internalNodes>
          <leafValues>
            -1.4404448866844177e-01 3.1433749198913574e-01</leafValues></_>
        <_>
          <internalNodes>
            0 -1 238 6.3694099662825465e-04</internalNodes>
          <leafValues>
            -1.9436344504356384e-01 2.3341560363769531e-01</leafValues></_>
        <_>
          <internalNodes>
            0 -1 265 -6.1462633311748505e-04</internalNodes>
          <leafValues>
            -6.2598359584808350e-01 7.3885791003704071e-02</leafValues></_>
        <_>
          <internalNodes>
            0 -1 218 -3.4357432741671801e-04</internalNodes>
          <leafValues>
            2.7441179752349854e-01 -1.9881519675254822e-01</leafValues></_>
        <_>
          <internalNodes>
            0 -1 275 1.5021956060081720e-03</internalNodes>
          <leafValues>
            1.2689918279647827e-01 -3.5642063617706299e-01</leafValues></_>
        <_>
          <internalNodes>
            0 -1 250 7.2251978053827770e-06</internalNodes>
          <leafValues>
            -2.3722381889820099e-01 2.0039786398410797e-01</leafValues></_>
        <_>
          <internalNodes>
            0 -1 71 7.3072873055934906e-03</internalNodes>
          <leafValues>
            -1.2187022715806961e-01 4.2439100146293640e-01</leafValues></_>
        <_>
          <internalNodes>
            0 -1 55 1.5914661344140768e-03</internalNodes>
          <leafValues>
            -2.1468873322010040e-01 2.1422511339187622e-01</leafValues></_>
        <_>
          <internalNodes>
            0 -1 63 -1.2449692003428936e-03</internalNodes>
          <leafValues>
            3.0199527740478516e-01 -1.4917279779911041e-01</leafValues></_>
        <_>
          <internalNodes>
            0 -1 181 -2.9355409787967801e-04</internalNodes>
          <leafValues>
            2.6621478796005249e-01 -1.6580048203468323e-01</leafValues></_>
        <_>
          <internalNodes>
            0 -1 9 -2.6881498098373413e-01</internalNodes>
          <leafValues>
            4.1870808601379395e-01 -1.0283052921295166e-01</leafValues></_>
        <_>
          <internalNodes>
            0 -1 229 -4.3663792312145233e-03</internalNodes>
          <leafValues>
            3.7501609325408936e-01 -1.1671491712331772e-01</leafValues></_>
        <_>
          <internalNodes>
            0 -1 256 -9.4208065420389175e-03</internalNodes>
          <leafValues>
            -6.0259139537811279e-01 7.7146932482719421e-02</leafValues></_>
        <_>
          <internalNodes>
            0 -1 75 -3.9137296378612518e-02</internalNodes>
          <leafValues>
            6.4843207597732544e-01 -7.6887339353561401e-02</leafValues></_>
        <_>
          <internalNodes>
            0 -1 148 3.9991451194509864e-04</internalNodes>
          <leafValues>
            1.0137793421745300e-01 -4.3916046619415283e-01</leafValues></_>
        <_>
          <internalNodes>
            0 -1 86 1.6248676925897598e-02</internalNodes>
          <leafValues>
            4.3059054762125015e-02 -8.1127661466598511e-01</leafValues></_>
        <_>
          <internalNodes>
            0 -1 217 -7.8132736962288618e-04</internalNodes>
          <leafValues>
            2.5110346078872681e-01 -1.7516425251960754e-01</leafValues></_></weakClassifiers></_>
    <!-- stage 12 -->
    <_>
      <maxWeakCount>23</maxWeakCount>
      <stageThreshold>-1.6848862171173096e+00</stageThreshold>
      <weakClassifiers>
        <_>
          <internalNodes>
            0 -1 223 3.5613796208053827e-03</internalNodes>
          <leafValues>
            -7.8727698326110840e-01 -3.2846716046333313e-01</leafValues></_>
        <_>
          <internalNodes>
            0 -1 47 -9.8377302289009094e-02</internalNodes>
          <leafValues>
            9.7701504826545715e-02 -4.1493099927902222e-01</leafValues></_>
        <_>
          <internalNodes>
            0 -1 245 7.8729549422860146e-03</internalNodes>
          <leafValues>
            -2.1557246148586273e-01 2.6338163018226624e-01</leafValues></_>
        <_>
          <internalNodes>
            0 -1 255 1.3142076786607504e-03</internalNodes>
          <leafValues>
            1.6297271847724915e-01 -3.2738038897514343e-01</leafValues></_>
        <_>
          <internalNodes>
            0 -1 37 -3.6130617372691631e-03</internalNodes>
          <leafValues>
            6.8388235569000244e-01 -4.0750063955783844e-02</leafValues></_>
        <_>
          <internalNodes>
            0 -1 3 -2.6347613893449306e-03</internalNodes>
          <leafValues>
            -3.8625198602676392e-01 1.3592150807380676e-01</leafValues></_>
        <_>
          <internalNodes>
            0 -1 263 6.2215793877840042e-04</internalNodes>
          <leafValues>
            7.2277508676052094e-02 -5.6781083345413208e-01</leafValues></_>
        <_>
          <internalNodes>
            0 -1 54 5.4192449897527695e-03</internalNodes>
          <leafValues>
            -7.8349441289901733e-02 5.3017854690551758e-01</leafValues></_>
        <_>
          <internalNodes>
            0 -1 213 1.6164032276719809e-03</internalNodes>
          <leafValues>
            -1.2565729022026062e-01 3.2505866885185242e-01</leafValues></_>
        <_>
          <internalNodes>
            0 -1 119 -1.0776495328173041e-03</internalNodes>
          <leafValues>
            3.0105847120285034e-01 -1.2783022224903107e-01</leafValues></_>
        <_>
          <internalNodes>
            0 -1 26 1.4074644423089921e-04</internalNodes>
          <leafValues>
            1.0089983791112900e-01 -3.9009451866149902e-01</leafValues></_>
        <_>
          <internalNodes>
            0 -1 93 -6.7705643596127629e-04</internalNodes>
          <leafValues>
            2.9399934411048889e-01 -1.4778687059879303e-01</leafValues></_>
        <_>
          <internalNodes>
            0 -1 169 -8.0234918277710676e-04</internalNodes>
          <leafValues>
            2.6456302404403687e-01 -1.5808655321598053e-01</leafValues></_>
        <_>
          <internalNodes>
            0 -1 167 -1.0296323336660862e-02</internalNodes>
          <leafValues>
            -6.0128837823867798e-01 6.7777402698993683e-02</leafValues></_>
        <_>
          <internalNodes>
            0 -1 133 -1.3788594515062869e-04</internalNodes>
          <leafValues>
            2.3577404022216797e-01 -1.6591154038906097e-01</leafValues></_>
        <_>
          <internalNodes>
            0 -1 42 3.6120120785199106e-04</internalNodes>
          <leafValues>
            -2.0146490633487701e-01 1.9611185789108276e-01</leafValues></_>
        <_>
          <internalNodes>
            0 -1 123 -5.1704322686418891e-05</internalNodes>
          <leafValues>
            -3.4748312830924988e-01 1.1803415417671204e-01</leafValues></_>
        <_>
          <internalNodes>
            0 -1 130 -3.4978010808117688e-04</internalNodes>
          <leafValues>
            2.8354012966156006e-01 -1.5413983166217804e-01</leafValues></_>
        <_>
          <internalNodes>
            0 -1 43 -1.2359307147562504e-02</internalNodes>
          <leafValues>
            2.0043826103210449e-01 -1.8781729042530060e-01</leafValues></_>
        <_>
          <internalNodes>
            0 -1 135 -3.4641855745576322e-04</internalNodes>
          <leafValues>
            -4.8064982891082764e-01 7.9639136791229248e-02</leafValues></_>
        <_>
          <internalNodes>
            0 -1 41 1.1478096712380648e-03</internalNodes>
          <leafValues>
            -1.3643862307071686e-01 3.1713312864303589e-01</leafValues></_>
        <_>
          <internalNodes>
            0 -1 160 4.7320341691374779e-03</internalNodes>
          <leafValues>
            -1.6346068680286407e-01 2.3045280575752258e-01</leafValues></_>
        <_>
          <internalNodes>
            0 -1 192 1.7953965812921524e-02</internalNodes>
          <leafValues>
            5.7512313127517700e-02 -6.7705243825912476e-01</leafValues></_></weakClassifiers></_>
    <!-- stage 13 -->
    <_>
      <maxWeakCount>30</maxWeakCount>
      <stageThreshold>-1.8547090291976929e+00</stageThreshold>
      <weakClassifiers>
        <_>
          <internalNodes>
            0 -1 107 1.1405033990740776e-02</internalNodes>
          <leafValues>
            -7.6827758550643921e-01 -1.3402061164379120e-01</leafValues></_>
        <_>
          <internalNodes>
            0 -1 77 -4.3818700313568115e-01</internalNodes>
          <leafValues>
            3.8260236382484436e-01 -3.2302001118659973e-01</leafValues></_>
        <_>
          <internalNodes>
            0 -1 249 -1.0115872137248516e-03</internalNodes>
          <leafValues>
            2.8125506639480591e-01 -2.0745189487934113e-01</leafValues></_>
        <_>
          <internalNodes>
            0 -1 274 -7.3033629450947046e-04</internalNodes>
          <leafValues>
            -4.4291755557060242e-01 1.1841984838247299e-01</leafValues></_>
        <_>
          <internalNodes>
            0 -1 168 -7.0406924933195114e-03</internalNodes>
          <leafValues>
            2.2779603302478790e-01 -1.9865874946117401e-01</leafValues></_>
        <_>
          <internalNodes>
            0 -1 20 -5.0228070467710495e-03</internalNodes>
          <leafValues>
            6.5821719169616699e-01 -6.5519548952579498e-02</leafValues></_>
        <_>
          <internalNodes>
            0 -1 232 1.9159207586199045e-03</internalNodes>
          <leafValues>
            -1.7452938854694366e-01 2.4666801095008850e-01</leafValues></_>
        <_>
          <internalNodes>
            0 -1 108 1.3695971574634314e-03</internalNodes>
          <leafValues>
            7.2739847004413605e-02 -5.0811648368835449e-01</leafValues></_>
        <_>
          <internalNodes>
            0 -1 212 3.9982073940336704e-04</internalNodes>
          <leafValues>
            -1.1823223531246185e-01 3.3393794298171997e-01</leafValues></_>
        <_>
          <internalNodes>
            0 -1 210 1.5298553043976426e-03</internalNodes>
          <leafValues>
            9.1717138886451721e-02 -5.7388818264007568e-01</leafValues></_>
        <_>
          <internalNodes>
            0 -1 87 -1.3732185470871627e-04</internalNodes>
          <leafValues>
            2.0423120260238647e-01 -2.1018464863300323e-01</leafValues></_>
        <_>
          <internalNodes>
            0 -1 78 -8.7929132860153913e-04</internalNodes>
          <leafValues>
            4.9001681804656982e-01 -9.7270637750625610e-02</leafValues></_>
        <_>
          <internalNodes>
            0 -1 257 6.7539091105572879e-05</internalNodes>
          <leafValues>
            1.3078413903713226e-01 -3.3611172437667847e-01</leafValues></_>
        <_>
          <internalNodes>
            0 -1 115 3.6476992070674896e-02</internalNodes>
          <leafValues>
            -7.9454727470874786e-02 4.4588094949722290e-01</leafValues></_>
        <_>
          <internalNodes>
            0 -1 51 -2.3799799382686615e-03</internalNodes>
          <leafValues>
            3.0933436751365662e-01 -1.3438284397125244e-01</leafValues></_>
        <_>
          <internalNodes>
            0 -1 25 -2.8095353627577424e-04</internalNodes>
          <leafValues>
            -4.2042496800422668e-01 1.0179515928030014e-01</leafValues></_>
        <_>
          <internalNodes>
            0 -1 187 9.6396803855895996e-03</internalNodes>
          <leafValues>
            -1.5167109668254852e-01 2.8701460361480713e-01</leafValues></_>
        <_>
          <internalNodes>
            0 -1 34 1.4397612214088440e-01</internalNodes>
          <leafValues>
            7.3603302240371704e-02 -5.6875330209732056e-01</leafValues></_>
        <_>
          <internalNodes>
            0 -1 49 2.4271138012409210e-02</internalNodes>
          <leafValues>
            -2.1776221692562103e-01 1.9175301492214203e-01</leafValues></_>
        <_>
          <internalNodes>
            0 -1 44 6.7894896492362022e-03</internalNodes>
          <leafValues>
            -8.0828331410884857e-02 5.1163530349731445e-01</leafValues></_>
        <_>
          <internalNodes>
            0 -1 132 -1.3139934162609279e-04</internalNodes>
          <leafValues>
            -3.2826295495033264e-01 1.3119283318519592e-01</leafValues></_>
        <_>
          <internalNodes>
            0 -1 155 2.5069597177207470e-04</internalNodes>
          <leafValues>
            -1.4866670966148376e-01 2.7617689967155457e-01</leafValues></_>
        <_>
          <internalNodes>
            0 -1 152 -3.0808425508439541e-03</internalNodes>
          <leafValues>
            1.8042314052581787e-01 -2.1441832184791565e-01</leafValues></_>
        <_>
          <internalNodes>
            0 -1 147 1.3046032981947064e-03</internalNodes>
          <leafValues>
            -1.4805810153484344e-01 2.7369430661201477e-01</leafValues></_>
        <_>
          <internalNodes>
            0 -1 251 -3.8610503543168306e-04</internalNodes>
          <leafValues>
            3.2597717642784119e-01 -1.2904083728790283e-01</leafValues></_>
        <_>
          <internalNodes>
            0 -1 19 1.9156474154442549e-03</internalNodes>
          <leafValues>
            7.1792811155319214e-02 -5.8186429738998413e-01</leafValues></_>
        <_>
          <internalNodes>
            0 -1 241 -9.0013816952705383e-04</internalNodes>
          <leafValues>
            -7.6326656341552734e-01 3.9844773709774017e-02</leafValues></_>
        <_>
          <internalNodes>
            0 -1 99 -1.5141579788178205e-03</internalNodes>
          <leafValues>
            3.6205047369003296e-01 -1.0774925351142883e-01</leafValues></_>
        <_>
          <internalNodes>
            0 -1 244 3.1204497441649437e-02</internalNodes>
          <leafValues>
            -1.2917061150074005e-01 2.9228073358535767e-01</leafValues></_>
        <_>
          <internalNodes>
            0 -1 59 7.9203146015061066e-06</internalNodes>
          <leafValues>
            -1.9380310177803040e-01 1.9399520754814148e-01</leafValues></_></weakClassifiers></_>
    <!-- stage 14 -->
    <_>
      <maxWeakCount>23</maxWeakCount>
      <stageThreshold>-1.6610574722290039e+00</stageThreshold>
      <weakClassifiers>
        <_>
          <internalNodes>
            0 -1 253 3.9040334522724152e-03</internalNodes>
          <leafValues>
            -7.4633002281188965e-01 2.0353981852531433e-01</leafValues></_>
        <_>
          <internalNodes>
            0 -1 7 -1.4272698760032654e-01</internalNodes>
          <leafValues>
            4.3783512711524963e-01 -3.3787277340888977e-01</leafValues></_>
        <_>
          <internalNodes>
            0 -1 165 -1.1262856423854828e-04</internalNodes>
          <leafValues>
            -3.6684057116508484e-01 1.4305433630943298e-01</leafValues></_>
        <_>
          <internalNodes>
            0 -1 269 7.6614674180746078e-03</internalNodes>
          <leafValues>
            -8.0599710345268250e-02 5.8097076416015625e-01</leafValues></_>
        <_>
          <internalNodes>
            0 -1 247 5.1226718351244926e-03</internalNodes>
          <leafValues>
            -1.1394365131855011e-01 3.6471557617187500e-01</leafValues></_>
        <_>
          <internalNodes>
            0 -1 67 1.8957937136292458e-03</internalNodes>
          <leafValues>
            6.5587230026721954e-02 -6.9736766815185547e-01</leafValues></_>
        <_>
          <internalNodes>
            0 -1 40 -5.1205813884735107e-02</internalNodes>
          <leafValues>
            -8.3556306362152100e-01 6.2786079943180084e-02</leafValues></_>
        <_>
          <internalNodes>
            0 -1 83 -8.1705155025701970e-05</internalNodes>
          <leafValues>
            -2.8122070431709290e-01 1.4514733850955963e-01</leafValues></_>
        <_>
          <internalNodes>
            0 -1 208 1.3988253158458974e-05</internalNodes>
          <leafValues>
            -1.9388906657695770e-01 2.0961363613605499e-01</leafValues></_>
        <_>
          <internalNodes>
            0 -1 236 1.5862349420785904e-02</internalNodes>
          <leafValues>
            4.9834441393613815e-02 -6.3028001785278320e-01</leafValues></_>
        <_>
          <internalNodes>
            0 -1 267 -7.9750530421733856e-03</internalNodes>
          <leafValues>
            -5.5360209941864014e-01 7.0437885820865631e-02</leafValues></_>
        <_>
          <internalNodes>
            0 -1 79 -1.5331290196627378e-03</internalNodes>
          <leafValues>
            3.6373379826545715e-01 -1.0425698012113571e-01</leafValues></_>
        <_>
          <internalNodes>
            0 -1 259 -2.2546127438545227e-03</internalNodes>
          <leafValues>
            -6.6070038080215454e-01 6.0777917504310608e-02</leafValues></_>
        <_>
          <internalNodes>
            0 -1 221 2.5891448603942990e-04</internalNodes>
          <leafValues>
            -1.7759692668914795e-01 2.1978136897087097e-01</leafValues></_>
        <_>
          <internalNodes>
            0 -1 178 2.9976898804306984e-04</internalNodes>
          <leafValues>
            -1.2056502699851990e-01 3.1370967626571655e-01</leafValues></_>
        <_>
          <internalNodes>
            0 -1 56 4.6231094747781754e-03</internalNodes>
          <leafValues>
            6.6991113126277924e-02 -5.6761115789413452e-01</leafValues></_>
        <_>
          <internalNodes>
            0 -1 85 -4.3026205152273178e-02</internalNodes>
          <leafValues>
            -7.8725385665893555e-01 4.2483687400817871e-02</leafValues></_>
        <_>
          <internalNodes>
            0 -1 73 -5.3893714211881161e-03</internalNodes>
          <leafValues>
            2.9013952612876892e-01 -1.4426341652870178e-01</leafValues></_>
        <_>
          <internalNodes>
            0 -1 138 -4.5586458873003721e-04</internalNodes>
          <leafValues>
            -6.5376061201095581e-01 6.1101011931896210e-02</leafValues></_>
        <_>
          <internalNodes>
            0 -1 97 -1.8050078302621841e-02</internalNodes>
          <leafValues>
            1.9256326556205750e-01 -2.0246228575706482e-01</leafValues></_>
        <_>
          <internalNodes>
            0 -1 141 -7.0772890467196703e-04</internalNodes>
          <leafValues>
            2.1203516423702240e-01 -1.8527802824974060e-01</leafValues></_>
        <_>
          <internalNodes>
            0 -1 254 -3.6382302641868591e-02</internalNodes>
          <leafValues>
            4.9659302830696106e-01 -7.5498104095458984e-02</leafValues></_>
        <_>
          <internalNodes>
            0 -1 121 -4.8248092643916607e-03</internalNodes>
          <leafValues>
            3.7512829899787903e-01 -9.2425636947154999e-02</leafValues></_></weakClassifiers></_></stages>
  <features>
    <_>
      <rects>
        <_>
          0 0 1 22 -1.</_>
        <_>
          0 11 1 11 2.</_></rects>
      <tilted>0</tilted></_>
    <_>
      <rects>
        <_>
          0 0 34 20 -1.</_>
        <_>
          17 0 17 20 2.</_></rects>
      <tilted>0</tilted></_>
    <_>
      <rects>
        <_>
          0 0 35 14 -1.</_>
        <_>
          0 7 35 7 2.</_></rects>
      <tilted>0</tilted></_>
    <_>
      <rects>
        <_>
          0 1 1 12 -1.</_>
        <_>
          0 7 1 6 2.</_></rects>
      <tilted>0</tilted></_>
    <_>
      <rects>
        <_>
          0 2 2 22 -1.</_>
        <_>
          0 2 1 11 2.</_>
        <_>
          1 13 1 11 2.</_></rects>
      <tilted>0</tilted></_>
    <_>
      <rects>
        <_>
          0 4 10 20 -1.</_>
        <_>
          5 4 5 20 2.</_></rects>
      <tilted>0</tilted></_>
    <_>
      <rects>
        <_>
          0 6 1 6 -1.</_>
        <_>
          0 8 1 2 3.</_></rects>
      <tilted>0</tilted></_>
    <_>
      <rects>
        <_>
          0 7 12 14 -1.</_>
        <_>
          6 7 6 14 2.</_></rects>
      <tilted>0</tilted></_>
    <_>
      <rects>
        <_>
          0 8 20 5 -1.</_>
        <_>
          10 8 10 5 2.</_></rects>
      <tilted>0</tilted></_>
    <_>
      <rects>
        <_>
          0 8 36 10 -1.</_>
        <_>
          12 8 12 10 3.</_></rects>
      <tilted>0</tilted></_>
    <_>
      <rects>
        <_>
          0 10 2 12 -1.</_>
        <_>
          1 10 1 12 2.</_></rects>
      <tilted>0</tilted></_>
    <_>
      <rects>
        <_>
          0 10 12 3 -1.</_>
        <_>
          4 10 4 3 3.</_></rects>
      <tilted>0</tilted></_>
    <_>
      <rects>
        <_>
          0 10 10 3 -1.</_>
        <_>
          5 10 5 3 2.</_></rects>
      <tilted>0</tilted></_>
    <_>
      <rects>
        <_>
          0 11 18 13 -1.</_>
        <_>
          6 11 6 13 3.</_></rects>
      <tilted>0</tilted></_>
    <_>
      <rects>
        <_>
          0 12 18 12 -1.</_>
        <_>
          6 12 6 12 3.</_></rects>
      <tilted>0</tilted></_>
    <_>
      <rects>
        <_>
          0 13 36 11 -1.</_>
        <_>
          18 13 18 11 2.</_></rects>
      <tilted>0</tilted></_>
    <_>
      <rects>
        <_>
          0 14 6 8 -1.</_>
        <_>
          2 14 2 8 3.</_></rects>
      <tilted>0</tilted></_>
    <_>
      <rects>
        <_>
          0 14 36 10 -1.</_>
        <_>
          0 14 18 5 2.</_>
        <_>
          18 19 18 5 2.</_></rects>
      <tilted>0</tilted></_>
    <_>
      <rects>
        <_>
          0 15 1 2 -1.</_>
        <_>
          0 16 1 1 2.</_></rects>
      <tilted>0</tilted></_>
    <_>
      <rects>
        <_>
          0 16 1 4 -1.</_>
        <_>
          0 18 1 2 2.</_></rects>
      <tilted>0</tilted></_>
    <_>
      <rects>
        <_>
          0 16 3 3 -1.</_>
        <_>
          1 16 1 3 3.</_></rects>
      <tilted>0</tilted></_>
    <_>
      <rects>
        <_>
          0 16 2 8 -1.</_>
        <_>
          0 16 1 4 2.</_>
        <_>
          1 20 1 4 2.</_></rects>
      <tilted>0</tilted></_>
    <_>
      <rects>
        <_>
          0 16 6 6 -1.</_>
        <_>
          0 18 6 2 3.</_></rects>
      <tilted>0</tilted></_>
    <_>
      <rects>
        <_>
          0 17 14 7 -1.</_>
        <_>
          7 17 7 7 2.</_></rects>
      <tilted>0</tilted></_>
    <_>
      <rects>
        <_>
          0 21 2 2 -1.</_>
        <_>
          1 21 1 2 2.</_></rects>
      <tilted>0</tilted></_>
    <_>
      <rects>
        <_>
          0 21 3 3 -1.</_>
        <_>
          1 21 1 3 3.</_></rects>
      <tilted>0</tilted></_>
    <_>
      <rects>
        <_>
          0 22 1 2 -1.</_>
        <_>
          0 23 1 1 2.</_></rects>
      <tilted>0</tilted></_>
    <_>
      <rects>
        <_>
          0 23 12 1 -1.</_>
        <_>
          6 23 6 1 2.</_></rects>
      <tilted>0</tilted></_>
    <_>
      <rects>
        <_>
          1 0 3 3 -1.</_>
        <_>
          1 1 3 1 3.</_></rects>
      <tilted>0</tilted></_>
    <_>
      <rects>
        <_>
          1 0 30 18 -1.</_>
        <_>
          1 9 30 9 2.</_></rects>
      <tilted>0</tilted></_>
    <_>
      <rects>
        <_>
          1 8 8 12 -1.</_>
        <_>
          5 8 4 12 2.</_></rects>
      <tilted>0</tilted></_>
    <_>
      <rects>
        <_>
          1 23 2 1 -1.</_>
        <_>
          2 23 1 1 2.</_></rects>
      <tilted>0</tilted></_>
    <_>
      <rects>
        <_>
          2 0 6 1 -1.</_>
        <_>
          5 0 3 1 2.</_></rects>
      <tilted>0</tilted></_>
    <_>
      <rects>
        <_>
          2 0 28 12 -1.</_>
        <_>
          2 6 28 6 2.</_></rects>
      <tilted>0</tilted></_>
    <_>
      <rects>
        <_>
          2 5 34 9 -1.</_>
        <_>
          19 5 17 9 2.</_></rects>
      <tilted>0</tilted></_>
    <_>
      <rects>
        <_>
          2 10 12 7 -1.</_>
        <_>
          8 10 6 7 2.</_></rects>
      <tilted>0</tilted></_>
    <_>
      <rects>
        <_>
          2 13 6 5 -1.</_>
        <_>
          5 13 3 5 2.</_></rects>
      <tilted>0</tilted></_>
    <_>
      <rects>
        <_>
          2 18 2 6 -1.</_>
        <_>
          2 18 1 3 2.</_>
        <_>
          3 21 1 3 2.</_></rects>
      <tilted>0</tilted></_>
    <_>
      <rects>
        <_>
          2 21 31 3 -1.</_>
        <_>
          2 22 31 1 3.</_></rects>
      <tilted>0</tilted></_>
    <_>
      <rects>
        <_>
          3 7 12 6 -1.</_>
        <_>
          3 7 6 3 2.</_>
        <_>
          9 10 6 3 2.</_></rects>
      <tilted>0</tilted></_>
    <_>
      <rects>
        <_>
          3 9 9 9 -1.</_>
        <_>
          6 9 3 9 3.</_></rects>
      <tilted>0</tilted></_>
    <_>
      <rects>
        <_>
          3 13 4 5 -1.</_>
        <_>
          5 13 2 5 2.</_></rects>
      <tilted>0</tilted></_>
    <_>
      <rects>
        <_>
          3 15 4 6 -1.</_>
        <_>
          3 15 2 3 2.</_>
        <_>
          5 18 2 3 2.</_></rects>
      <tilted>0</tilted></_>
    <_>
      <rects>
        <_>
          3 17 12 7 -1.</_>
        <_>
          7 17 4 7 3.</_></rects>
      <tilted>0</tilted></_>
    <_>
      <rects>
        <_>
          3 22 7 2 -1.</_>
        <_>
          3 23 7 1 2.</_></rects>
      <tilted>0</tilted></_>
    <_>
      <rects>
        <_>
          3 23 6 1 -1.</_>
        <_>
          5 23 2 1 3.</_></rects>
      <tilted>0</tilted></_>
    <_>
      <rects>
        <_>
          3 23 21 1 -1.</_>
        <_>
          10 23 7 1 3.</_></rects>
      <tilted>0</tilted></_>
    <_>
      <rects>
        <_>
          4 0 12 14 -1.</_>
        <_>
          4 7 12 7 2.</_></rects>
      <tilted>0</tilted></_>
    <_>
      <rects>
        <_>
          4 11 5 3 -1.</_>
        <_>
          4 12 5 1 3.</_></rects>
      <tilted>0</tilted></_>
    <_>
      <rects>
        <_>
          4 14 32 5 -1.</_>
        <_>
          20 14 16 5 2.</_></rects>
      <tilted>0</tilted></_>
    <_>
      <rects>
        <_>
          4 18 8 3 -1.</_>
        <_>
          8 18 4 3 2.</_></rects>
      <tilted>0</tilted></_>
    <_>
      <rects>
        <_>
          4 19 18 2 -1.</_>
        <_>
          4 19 9 1 2.</_>
        <_>
          13 20 9 1 2.</_></rects>
      <tilted>0</tilted></_>
    <_>
      <rects>
        <_>
          4 19 32 5 -1.</_>
        <_>
          20 19 16 5 2.</_></rects>
      <tilted>0</tilted></_>
    <_>
      <rects>
        <_>
          4 21 11 3 -1.</_>
        <_>
          4 22 11 1 3.</_></rects>
      <tilted>0</tilted></_>
    <_>
      <rects>
        <_>
          4 22 5 2 -1.</_>
        <_>
          4 23 5 1 2.</_></rects>
      <tilted>0</tilted></_>
    <_>
      <rects>
        <_>
          5 2 18 5 -1.</_>
        <_>
          11 2 6 5 3.</_></rects>
      <tilted>0</tilted></_>
    <_>
      <rects>
        <_>
          5 3 3 11 -1.</_>
        <_>
          6 3 1 11 3.</_></rects>
      <tilted>0</tilted></_>
    <_>
      <rects>
        <_>
          5 4 2 3 -1.</_>
        <_>
          6 4 1 3 2.</_></rects>
      <tilted>0</tilted></_>
    <_>
      <rects>
        <_>
          5 5 8 14 -1.</_>
        <_>
          5 5 4 7 2.</_>
        <_>
          9 12 4 7 2.</_></rects>
      <tilted>0</tilted></_>
    <_>
      <rects>
        <_>
          5 6 2 2 -1.</_>
        <_>
          6 6 1 2 2.</_></rects>
      <tilted>0</tilted></_>
    <_>
      <rects>
        <_>
          5 12 18 4 -1.</_>
        <_>
          5 12 9 2 2.</_>
        <_>
          14 14 9 2 2.</_></rects>
      <tilted>0</tilted></_>
    <_>
      <rects>
        <_>
          5 23 15 1 -1.</_>
        <_>
          10 23 5 1 3.</_></rects>
      <tilted>0</tilted></_>
    <_>
      <rects>
        <_>
          6 9 8 2 -1.</_>
        <_>
          6 9 4 1 2.</_>
        <_>
          10 10 4 1 2.</_></rects>
      <tilted>0</tilted></_>
    <_>
      <rects>
        <_>
          6 10 2 3 -1.</_>
        <_>
          6 11 2 1 3.</_></rects>
      <tilted>0</tilted></_>
    <_>
      <rects>
        <_>
          6 10 8 2 -1.</_>
        <_>
          6 10 4 1 2.</_>
        <_>
          10 11 4 1 2.</_></rects>
      <tilted>0</tilted></_>
    <_>
      <rects>
        <_>
          6 11 6 2 -1.</_>
        <_>
          6 11 3 1 2.</_>
        <_>
          9 12 3 1 2.</_></rects>
      <tilted>0</tilted></_>
    <_>
      <rects>
        <_>
          6 18 25 4 -1.</_>
        <_>
          6 20 25 2 2.</_></rects>
      <tilted>0</tilted></_>
    <_>
      <rects>
        <_>
          6 20 3 4 -1.</_>
        <_>
          7 20 1 4 3.</_></rects>
      <tilted>0</tilted></_>
    <_>
      <rects>
        <_>
          7 0 5 20 -1.</_>
        <_>
          7 10 5 10 2.</_></rects>
      <tilted>0</tilted></_>
    <_>
      <rects>
        <_>
          7 0 18 2 -1.</_>
        <_>
          16 0 9 2 2.</_></rects>
      <tilted>0</tilted></_>
    <_>
      <rects>
        <_>
          7 0 20 12 -1.</_>
        <_>
          7 6 20 6 2.</_></rects>
      <tilted>0</tilted></_>
    <_>
      <rects>
        <_>
          7 5 20 1 -1.</_>
        <_>
          17 5 10 1 2.</_></rects>
      <tilted>0</tilted></_>
    <_>
      <rects>
        <_>
          7 7 18 2 -1.</_>
        <_>
          7 7 9 1 2.</_>
        <_>
          16 8 9 1 2.</_></rects>
      <tilted>0</tilted></_>
    <_>
      <rects>
        <_>
          7 13 21 3 -1.</_>
        <_>
          7 14 21 1 3.</_></rects>
      <tilted>0</tilted></_>
    <_>
      <rects>
        <_>
          7 17 1 2 -1.</_>
        <_>
          7 18 1 1 2.</_></rects>
      <tilted>0</tilted></_>
    <_>
      <rects>
        <_>
          7 17 16 6 -1.</_>
        <_>
          7 20 16 3 2.</_></rects>
      <tilted>0</tilted></_>
    <_>
      <rects>
        <_>
          7 19 2 4 -1.</_>
        <_>
          8 19 1 4 2.</_></rects>
      <tilted>0</tilted></_>
    <_>
      <rects>
        <_>
          8 0 17 24 -1.</_>
        <_>
          8 8 17 8 3.</_></rects>
      <tilted>0</tilted></_>
    <_>
      <rects>
        <_>
          8 8 2 2 -1.</_>
        <_>
          8 8 1 1 2.</_>
        <_>
          9 9 1 1 2.</_></rects>
      <tilted>0</tilted></_>
    <_>
      <rects>
        <_>
          8 9 4 2 -1.</_>
        <_>
          8 9 2 1 2.</_>
        <_>
          10 10 2 1 2.</_></rects>
      <tilted>0</tilted></_>
    <_>
      <rects>
        <_>
          8 12 2 2 -1.</_>
        <_>
          8 12 1 1 2.</_>
        <_>
          9 13 1 1 2.</_></rects>
      <tilted>0</tilted></_>
    <_>
      <rects>
        <_>
          8 14 2 2 -1.</_>
        <_>
          8 14 1 1 2.</_>
        <_>
          9 15 1 1 2.</_></rects>
      <tilted>0</tilted></_>
    <_>
      <rects>
        <_>
          8 15 2 2 -1.</_>
        <_>
          8 15 1 1 2.</_>
        <_>
          9 16 1 1 2.</_></rects>
      <tilted>0</tilted></_>
    <_>
      <rects>
        <_>
          9 0 10 1 -1.</_>
        <_>
          14 0 5 1 2.</_></rects>
      <tilted>0</tilted></_>
    <_>
      <rects>
        <_>
          9 9 4 2 -1.</_>
        <_>
          9 9 2 1 2.</_>
        <_>
          11 10 2 1 2.</_></rects>
      <tilted>0</tilted></_>
    <_>
      <rects>
        <_>
          9 10 14 6 -1.</_>
        <_>
          9 13 14 3 2.</_></rects>
      <tilted>0</tilted></_>
    <_>
      <rects>
        <_>
          9 12 26 3 -1.</_>
        <_>
          9 13 26 1 3.</_></rects>
      <tilted>0</tilted></_>
    <_>
      <rects>
        <_>
          9 17 2 3 -1.</_>
        <_>
          10 17 1 3 2.</_></rects>
      <tilted>0</tilted></_>
    <_>
      <rects>
        <_>
          9 17 4 4 -1.</_>
        <_>
          9 17 2 2 2.</_>
        <_>
          11 19 2 2 2.</_></rects>
      <tilted>0</tilted></_>
    <_>
      <rects>
        <_>
          9 18 5 6 -1.</_>
        <_>
          9 21 5 3 2.</_></rects>
      <tilted>0</tilted></_>
    <_>
      <rects>
        <_>
          9 18 18 6 -1.</_>
        <_>
          9 21 18 3 2.</_></rects>
      <tilted>0</tilted></_>
    <_>
      <rects>
        <_>
          9 23 9 1 -1.</_>
        <_>
          12 23 3 1 3.</_></rects>
      <tilted>0</tilted></_>
    <_>
      <rects>
        <_>
          10 7 9 4 -1.</_>
        <_>
          13 7 3 4 3.</_></rects>
      <tilted>0</tilted></_>
    <_>
      <rects>
        <_>
          10 14 4 2 -1.</_>
        <_>
          10 14 2 1 2.</_>
        <_>
          12 15 2 1 2.</_></rects>
      <tilted>0</tilted></_>
    <_>
      <rects>
        <_>
          10 14 19 10 -1.</_>
        <_>
          10 19 19 5 2.</_></rects>
      <tilted>0</tilted></_>
    <_>
      <rects>
        <_>
          10 16 4 2 -1.</_>
        <_>
          10 16 2 1 2.</_>
        <_>
          12 17 2 1 2.</_></rects>
      <tilted>0</tilted></_>
    <_>
      <rects>
        <_>
          10 16 13 8 -1.</_>
        <_>
          10 20 13 4 2.</_></rects>
      <tilted>0</tilted></_>
    <_>
      <rects>
        <_>
          10 16 26 8 -1.</_>
        <_>
          10 16 13 4 2.</_>
        <_>
          23 20 13 4 2.</_></rects>
      <tilted>0</tilted></_>
    <_>
      <rects>
        <_>
          10 18 1 3 -1.</_>
        <_>
          10 19 1 1 3.</_></rects>
      <tilted>0</tilted></_>
    <_>
      <rects>
        <_>
          10 18 6 1 -1.</_>
        <_>
          13 18 3 1 2.</_></rects>
      <tilted>0</tilted></_>
    <_>
      <rects>
        <_>
          10 19 1 4 -1.</_>
        <_>
          10 21 1 2 2.</_></rects>
      <tilted>0</tilted></_>
    <_>
      <rects>
        <_>
          10 23 3 1 -1.</_>
        <_>
          11 23 1 1 3.</_></rects>
      <tilted>0</tilted></_>
    <_>
      <rects>
        <_>
          11 0 8 24 -1.</_>
        <_>
          11 8 8 8 3.</_></rects>
      <tilted>0</tilted></_>
    <_>
      <rects>
        <_>
          11 0 25 6 -1.</_>
        <_>
          11 3 25 3 2.</_></rects>
      <tilted>0</tilted></_>
    <_>
      <rects>
        <_>
          11 14 3 6 -1.</_>
        <_>
          12 14 1 6 3.</_></rects>
      <tilted>0</tilted></_>
    <_>
      <rects>
        <_>
          11 14 13 10 -1.</_>
        <_>
          11 19 13 5 2.</_></rects>
      <tilted>0</tilted></_>
    <_>
      <rects>
        <_>
          11 15 3 5 -1.</_>
        <_>
          12 15 1 5 3.</_></rects>
      <tilted>0</tilted></_>
    <_>
      <rects>
        <_>
          11 20 9 3 -1.</_>
        <_>
          11 21 9 1 3.</_></rects>
      <tilted>0</tilted></_>
    <_>
      <rects>
        <_>
          11 22 6 2 -1.</_>
        <_>
          13 22 2 2 3.</_></rects>
      <tilted>0</tilted></_>
    <_>
      <rects>
        <_>
          11 23 6 1 -1.</_>
        <_>
          13 23 2 1 3.</_></rects>
      <tilted>0</tilted></_>
    <_>
      <rects>
        <_>
          12 0 8 24 -1.</_>
        <_>
          12 8 8 8 3.</_></rects>
      <tilted>0</tilted></_>
    <_>
      <rects>
        <_>
          12 0 13 24 -1.</_>
        <_>
          12 8 13 8 3.</_></rects>
      <tilted>0</tilted></_>
    <_>
      <rects>
        <_>
          12 0 19 8 -1.</_>
        <_>
          12 4 19 4 2.</_></rects>
      <tilted>0</tilted></_>
    <_>
      <rects>
        <_>
          12 0 24 6 -1.</_>
        <_>
          12 3 24 3 2.</_></rects>
      <tilted>0</tilted></_>
    <_>
      <rects>
        <_>
          12 3 9 21 -1.</_>
        <_>
          12 10 9 7 3.</_></rects>
      <tilted>0</tilted></_>
    <_>
      <rects>
        <_>
          12 5 21 5 -1.</_>
        <_>
          19 5 7 5 3.</_></rects>
      <tilted>0</tilted></_>
    <_>
      <rects>
        <_>
          12 8 1 3 -1.</_>
        <_>
          12 9 1 1 3.</_></rects>
      <tilted>0</tilted></_>
    <_>
      <rects>
        <_>
          12 10 3 6 -1.</_>
        <_>
          12 12 3 2 3.</_></rects>
      <tilted>0</tilted></_>
    <_>
      <rects>
        <_>
          12 12 2 2 -1.</_>
        <_>
          12 12 1 1 2.</_>
        <_>
          13 13 1 1 2.</_></rects>
      <tilted>0</tilted></_>
    <_>
      <rects>
        <_>
          12 13 2 3 -1.</_>
        <_>
          12 14 2 1 3.</_></rects>
      <tilted>0</tilted></_>
    <_>
      <rects>
        <_>
          12 14 2 2 -1.</_>
        <_>
          12 14 1 1 2.</_>
        <_>
          13 15 1 1 2.</_></rects>
      <tilted>0</tilted></_>
    <_>
      <rects>
        <_>
          12 18 6 4 -1.</_>
        <_>
          12 20 6 2 2.</_></rects>
      <tilted>0</tilted></_>
    <_>
      <rects>
        <_>
          12 23 3 1 -1.</_>
        <_>
          13 23 1 1 3.</_></rects>
      <tilted>0</tilted></_>
    <_>
      <rects>
        <_>
          13 0 2 2 -1.</_>
        <_>
          13 0 1 1 2.</_>
        <_>
          14 1 1 1 2.</_></rects>
      <tilted>0</tilted></_>
    <_>
      <rects>
        <_>
          13 0 4 16 -1.</_>
        <_>
          13 8 4 8 2.</_></rects>
      <tilted>0</tilted></_>
    <_>
      <rects>
        <_>
          13 0 17 14 -1.</_>
        <_>
          13 7 17 7 2.</_></rects>
      <tilted>0</tilted></_>
    <_>
      <rects>
        <_>
          13 7 1 6 -1.</_>
        <_>
          13 9 1 2 3.</_></rects>
      <tilted>0</tilted></_>
    <_>
      <rects>
        <_>
          13 10 8 2 -1.</_>
        <_>
          13 10 4 1 2.</_>
        <_>
          17 11 4 1 2.</_></rects>
      <tilted>0</tilted></_>
    <_>
      <rects>
        <_>
          13 13 2 4 -1.</_>
        <_>
          13 13 1 2 2.</_>
        <_>
          14 15 1 2 2.</_></rects>
      <tilted>0</tilted></_>
    <_>
      <rects>
        <_>
          13 14 2 2 -1.</_>
        <_>
          13 14 1 1 2.</_>
        <_>
          14 15 1 1 2.</_></rects>
      <tilted>0</tilted></_>
    <_>
      <rects>
        <_>
          13 15 3 1 -1.</_>
        <_>
          14 15 1 1 3.</_></rects>
      <tilted>0</tilted></_>
    <_>
      <rects>
        <_>
          13 19 6 3 -1.</_>
        <_>
          13 20 6 1 3.</_></rects>
      <tilted>0</tilted></_>
    <_>
      <rects>
        <_>
          13 21 3 3 -1.</_>
        <_>
          14 21 1 3 3.</_></rects>
      <tilted>0</tilted></_>
    <_>
      <rects>
        <_>
          14 13 2 2 -1.</_>
        <_>
          14 13 1 1 2.</_>
        <_>
          15 14 1 1 2.</_></rects>
      <tilted>0</tilted></_>
    <_>
      <rects>
        <_>
          14 14 3 1 -1.</_>
        <_>
          15 14 1 1 3.</_></rects>
      <tilted>0</tilted></_>
    <_>
      <rects>
        <_>
          14 21 3 1 -1.</_>
        <_>
          15 21 1 1 3.</_></rects>
      <tilted>0</tilted></_>
    <_>
      <rects>
        <_>
          14 22 2 2 -1.</_>
        <_>
          15 22 1 2 2.</_></rects>
      <tilted>0</tilted></_>
    <_>
      <rects>
        <_>
          14 23 4 1 -1.</_>
        <_>
          16 23 2 1 2.</_></rects>
      <tilted>0</tilted></_>
    <_>
      <rects>
        <_>
          15 0 2 2 -1.</_>
        <_>
          15 0 1 1 2.</_>
        <_>
          16 1 1 1 2.</_></rects>
      <tilted>0</tilted></_>
    <_>
      <rects>
        <_>
          15 0 2 2 -1.</_>
        <_>
          15 1 2 1 2.</_></rects>
      <tilted>0</tilted></_>
    <_>
      <rects>
        <_>
          15 9 7 4 -1.</_>
        <_>
          15 11 7 2 2.</_></rects>
      <tilted>0</tilted></_>
    <_>
      <rects>
        <_>
          15 11 5 3 -1.</_>
        <_>
          15 12 5 1 3.</_></rects>
      <tilted>0</tilted></_>
    <_>
      <rects>
        <_>
          15 22 2 1 -1.</_>
        <_>
          16 22 1 1 2.</_></rects>
      <tilted>0</tilted></_>
    <_>
      <rects>
        <_>
          15 22 2 2 -1.</_>
        <_>
          16 22 1 2 2.</_></rects>
      <tilted>0</tilted></_>
    <_>
      <rects>
        <_>
          15 22 18 2 -1.</_>
        <_>
          15 23 18 1 2.</_></rects>
      <tilted>0</tilted></_>
    <_>
      <rects>
        <_>
          16 0 14 24 -1.</_>
        <_>
          16 12 14 12 2.</_></rects>
      <tilted>0</tilted></_>
    <_>
      <rects>
        <_>
          16 11 12 1 -1.</_>
        <_>
          20 11 4 1 3.</_></rects>
      <tilted>0</tilted></_>
    <_>
      <rects>
        <_>
          16 14 12 2 -1.</_>
        <_>
          16 14 6 1 2.</_>
        <_>
          22 15 6 1 2.</_></rects>
      <tilted>0</tilted></_>
    <_>
      <rects>
        <_>
          16 21 3 2 -1.</_>
        <_>
          17 21 1 2 3.</_></rects>
      <tilted>0</tilted></_>
    <_>
      <rects>
        <_>
          17 0 12 11 -1.</_>
        <_>
          21 0 4 11 3.</_></rects>
      <tilted>0</tilted></_>
    <_>
      <rects>
        <_>
          17 14 6 1 -1.</_>
        <_>
          19 14 2 1 3.</_></rects>
      <tilted>0</tilted></_>
    <_>
      <rects>
        <_>
          17 16 1 2 -1.</_>
        <_>
          17 17 1 1 2.</_></rects>
      <tilted>0</tilted></_>
    <_>
      <rects>
        <_>
          17 16 18 1 -1.</_>
        <_>
          23 16 6 1 3.</_></rects>
      <tilted>0</tilted></_>
    <_>
      <rects>
        <_>
          18 0 13 10 -1.</_>
        <_>
          18 5 13 5 2.</_></rects>
      <tilted>0</tilted></_>
    <_>
      <rects>
        <_>
          18 2 15 20 -1.</_>
        <_>
          23 2 5 20 3.</_></rects>
      <tilted>0</tilted></_>
    <_>
      <rects>
        <_>
          18 7 2 2 -1.</_>
        <_>
          18 7 1 1 2.</_>
        <_>
          19 8 1 1 2.</_></rects>
      <tilted>0</tilted></_>
    <_>
      <rects>
        <_>
          18 10 18 7 -1.</_>
        <_>
          24 10 6 7 3.</_></rects>
      <tilted>0</tilted></_>
    <_>
      <rects>
        <_>
          18 16 18 8 -1.</_>
        <_>
          24 16 6 8 3.</_></rects>
      <tilted>0</tilted></_>
    <_>
      <rects>
        <_>
          18 23 6 1 -1.</_>
        <_>
          20 23 2 1 3.</_></rects>
      <tilted>0</tilted></_>
    <_>
      <rects>
        <_>
          19 2 17 3 -1.</_>
        <_>
          19 3 17 1 3.</_></rects>
      <tilted>0</tilted></_>
    <_>
      <rects>
        <_>
          19 5 8 6 -1.</_>
        <_>
          19 5 4 3 2.</_>
        <_>
          23 8 4 3 2.</_></rects>
      <tilted>0</tilted></_>
    <_>
      <rects>
        <_>
          19 5 10 8 -1.</_>
        <_>
          19 5 5 4 2.</_>
        <_>
          24 9 5 4 2.</_></rects>
      <tilted>0</tilted></_>
    <_>
      <rects>
        <_>
          19 21 3 3 -1.</_>
        <_>
          20 21 1 3 3.</_></rects>
      <tilted>0</tilted></_>
    <_>
      <rects>
        <_>
          19 22 3 1 -1.</_>
        <_>
          20 22 1 1 3.</_></rects>
      <tilted>0</tilted></_>
    <_>
      <rects>
        <_>
          19 22 3 2 -1.</_>
        <_>
          20 22 1 2 3.</_></rects>
      <tilted>0</tilted></_>
    <_>
      <rects>
        <_>
          19 22 9 2 -1.</_>
        <_>
          22 22 3 2 3.</_></rects>
      <tilted>0</tilted></_>
    <_>
      <rects>
        <_>
          19 23 3 1 -1.</_>
        <_>
          20 23 1 1 3.</_></rects>
      <tilted>0</tilted></_>
    <_>
      <rects>
        <_>
          20 0 10 3 -1.</_>
        <_>
          25 0 5 3 2.</_></rects>
      <tilted>0</tilted></_>
    <_>
      <rects>
        <_>
          20 0 16 6 -1.</_>
        <_>
          20 3 16 3 2.</_></rects>
      <tilted>0</tilted></_>
    <_>
      <rects>
        <_>
          20 1 1 6 -1.</_>
        <_>
          20 3 1 2 3.</_></rects>
      <tilted>0</tilted></_>
    <_>
      <rects>
        <_>
          20 1 16 10 -1.</_>
        <_>
          28 1 8 10 2.</_></rects>
      <tilted>0</tilted></_>
    <_>
      <rects>
        <_>
          20 2 16 15 -1.</_>
        <_>
          20 7 16 5 3.</_></rects>
      <tilted>0</tilted></_>
    <_>
      <rects>
        <_>
          20 4 16 9 -1.</_>
        <_>
          28 4 8 9 2.</_></rects>
      <tilted>0</tilted></_>
    <_>
      <rects>
        <_>
          20 6 6 6 -1.</_>
        <_>
          20 6 3 3 2.</_>
        <_>
          23 9 3 3 2.</_></rects>
      <tilted>0</tilted></_>
    <_>
      <rects>
        <_>
          20 7 3 6 -1.</_>
        <_>
          20 9 3 2 3.</_></rects>
      <tilted>0</tilted></_>
    <_>
      <rects>
        <_>
          20 10 4 4 -1.</_>
        <_>
          20 10 2 2 2.</_>
        <_>
          22 12 2 2 2.</_></rects>
      <tilted>0</tilted></_>
    <_>
      <rects>
        <_>
          20 23 9 1 -1.</_>
        <_>
          23 23 3 1 3.</_></rects>
      <tilted>0</tilted></_>
    <_>
      <rects>
        <_>
          21 3 3 1 -1.</_>
        <_>
          22 3 1 1 3.</_></rects>
      <tilted>0</tilted></_>
    <_>
      <rects>
        <_>
          21 5 2 2 -1.</_>
        <_>
          21 5 1 1 2.</_>
        <_>
          22 6 1 1 2.</_></rects>
      <tilted>0</tilted></_>
    <_>
      <rects>
        <_>
          21 6 8 18 -1.</_>
        <_>
          21 6 4 9 2.</_>
        <_>
          25 15 4 9 2.</_></rects>
      <tilted>0</tilted></_>
    <_>
      <rects>
        <_>
          21 7 6 4 -1.</_>
        <_>
          21 7 3 2 2.</_>
        <_>
          24 9 3 2 2.</_></rects>
      <tilted>0</tilted></_>
    <_>
      <rects>
        <_>
          21 9 2 2 -1.</_>
        <_>
          22 9 1 2 2.</_></rects>
      <tilted>0</tilted></_>
    <_>
      <rects>
        <_>
          21 13 2 4 -1.</_>
        <_>
          21 13 1 2 2.</_>
        <_>
          22 15 1 2 2.</_></rects>
      <tilted>0</tilted></_>
    <_>
      <rects>
        <_>
          21 13 3 4 -1.</_>
        <_>
          22 13 1 4 3.</_></rects>
      <tilted>0</tilted></_>
    <_>
      <rects>
        <_>
          21 14 2 2 -1.</_>
        <_>
          21 14 1 1 2.</_>
        <_>
          22 15 1 1 2.</_></rects>
      <tilted>0</tilted></_>
    <_>
      <rects>
        <_>
          21 19 12 3 -1.</_>
        <_>
          25 19 4 3 3.</_></rects>
      <tilted>0</tilted></_>
    <_>
      <rects>
        <_>
          22 4 2 14 -1.</_>
        <_>
          22 4 1 7 2.</_>
        <_>
          23 11 1 7 2.</_></rects>
      <tilted>0</tilted></_>
    <_>
      <rects>
        <_>
          22 4 12 6 -1.</_>
        <_>
          26 4 4 6 3.</_></rects>
      <tilted>0</tilted></_>
    <_>
      <rects>
        <_>
          22 6 2 2 -1.</_>
        <_>
          22 6 1 1 2.</_>
        <_>
          23 7 1 1 2.</_></rects>
      <tilted>0</tilted></_>
    <_>
      <rects>
        <_>
          22 8 4 10 -1.</_>
        <_>
          22 8 2 5 2.</_>
        <_>
          24 13 2 5 2.</_></rects>
      <tilted>0</tilted></_>
    <_>
      <rects>
        <_>
          22 9 8 8 -1.</_>
        <_>
          22 13 8 4 2.</_></rects>
      <tilted>0</tilted></_>
    <_>
      <rects>
        <_>
          22 13 4 4 -1.</_>
        <_>
          24 13 2 4 2.</_></rects>
      <tilted>0</tilted></_>
    <_>
      <rects>
        <_>
          22 13 9 6 -1.</_>
        <_>
          22 15 9 2 3.</_></rects>
      <tilted>0</tilted></_>
    <_>
      <rects>
        <_>
          22 15 2 6 -1.</_>
        <_>
          22 15 1 3 2.</_>
        <_>
          23 18 1 3 2.</_></rects>
      <tilted>0</tilted></_>
    <_>
      <rects>
        <_>
          22 18 12 5 -1.</_>
        <_>
          26 18 4 5 3.</_></rects>
      <tilted>0</tilted></_>
    <_>
      <rects>
        <_>
          22 19 9 3 -1.</_>
        <_>
          25 19 3 3 3.</_></rects>
      <tilted>0</tilted></_>
    <_>
      <rects>
        <_>
          23 8 6 4 -1.</_>
        <_>
          23 8 3 2 2.</_>
        <_>
          26 10 3 2 2.</_></rects>
      <tilted>0</tilted></_>
    <_>
      <rects>
        <_>
          23 14 6 7 -1.</_>
        <_>
          26 14 3 7 2.</_></rects>
      <tilted>0</tilted></_>
    <_>
      <rects>
        <_>
          23 16 4 1 -1.</_>
        <_>
          25 16 2 1 2.</_></rects>
      <tilted>0</tilted></_>
    <_>
      <rects>
        <_>
          23 22 3 1 -1.</_>
        <_>
          24 22 1 1 3.</_></rects>
      <tilted>0</tilted></_>
    <_>
      <rects>
        <_>
          23 22 3 2 -1.</_>
        <_>
          24 22 1 2 3.</_></rects>
      <tilted>0</tilted></_>
    <_>
      <rects>
        <_>
          24 3 12 14 -1.</_>
        <_>
          30 3 6 14 2.</_></rects>
      <tilted>0</tilted></_>
    <_>
      <rects>
        <_>
          24 4 12 16 -1.</_>
        <_>
          30 4 6 16 2.</_></rects>
      <tilted>0</tilted></_>
    <_>
      <rects>
        <_>
          24 11 4 4 -1.</_>
        <_>
          24 11 2 2 2.</_>
        <_>
          26 13 2 2 2.</_></rects>
      <tilted>0</tilted></_>
    <_>
      <rects>
        <_>
          24 12 4 2 -1.</_>
        <_>
          24 12 2 1 2.</_>
        <_>
          26 13 2 1 2.</_></rects>
      <tilted>0</tilted></_>
    <_>
      <rects>
        <_>
          24 13 2 6 -1.</_>
        <_>
          25 13 1 6 2.</_></rects>
      <tilted>0</tilted></_>
    <_>
      <rects>
        <_>
          24 17 2 2 -1.</_>
        <_>
          24 17 1 1 2.</_>
        <_>
          25 18 1 1 2.</_></rects>
      <tilted>0</tilted></_>
    <_>
      <rects>
        <_>
          24 18 10 6 -1.</_>
        <_>
          24 18 5 3 2.</_>
        <_>
          29 21 5 3 2.</_></rects>
      <tilted>0</tilted></_>
    <_>
      <rects>
        <_>
          24 20 2 2 -1.</_>
        <_>
          24 20 1 1 2.</_>
        <_>
          25 21 1 1 2.</_></rects>
      <tilted>0</tilted></_>
    <_>
      <rects>
        <_>
          24 22 3 1 -1.</_>
        <_>
          25 22 1 1 3.</_></rects>
      <tilted>0</tilted></_>
    <_>
      <rects>
        <_>
          25 0 6 1 -1.</_>
        <_>
          27 0 2 1 3.</_></rects>
      <tilted>0</tilted></_>
    <_>
      <rects>
        <_>
          25 1 4 14 -1.</_>
        <_>
          25 1 2 7 2.</_>
        <_>
          27 8 2 7 2.</_></rects>
      <tilted>0</tilted></_>
    <_>
      <rects>
        <_>
          25 5 2 2 -1.</_>
        <_>
          25 5 1 1 2.</_>
        <_>
          26 6 1 1 2.</_></rects>
      <tilted>0</tilted></_>
    <_>
      <rects>
        <_>
          25 10 4 3 -1.</_>
        <_>
          25 11 4 1 3.</_></rects>
      <tilted>0</tilted></_>
    <_>
      <rects>
        <_>
          25 10 9 4 -1.</_>
        <_>
          25 12 9 2 2.</_></rects>
      <tilted>0</tilted></_>
    <_>
      <rects>
        <_>
          25 11 2 2 -1.</_>
        <_>
          25 11 1 1 2.</_>
        <_>
          26 12 1 1 2.</_></rects>
      <tilted>0</tilted></_>
    <_>
      <rects>
        <_>
          25 14 2 2 -1.</_>
        <_>
          25 14 1 1 2.</_>
        <_>
          26 15 1 1 2.</_></rects>
      <tilted>0</tilted></_>
    <_>
      <rects>
        <_>
          26 8 1 6 -1.</_>
        <_>
          26 10 1 2 3.</_></rects>
      <tilted>0</tilted></_>
    <_>
      <rects>
        <_>
          26 8 2 3 -1.</_>
        <_>
          26 9 2 1 3.</_></rects>
      <tilted>0</tilted></_>
    <_>
      <rects>
        <_>
          26 10 2 6 -1.</_>
        <_>
          26 10 1 3 2.</_>
        <_>
          27 13 1 3 2.</_></rects>
      <tilted>0</tilted></_>
    <_>
      <rects>
        <_>
          26 12 2 2 -1.</_>
        <_>
          26 12 1 1 2.</_>
        <_>
          27 13 1 1 2.</_></rects>
      <tilted>0</tilted></_>
    <_>
      <rects>
        <_>
          26 16 2 2 -1.</_>
        <_>
          26 17 2 1 2.</_></rects>
      <tilted>0</tilted></_>
    <_>
      <rects>
        <_>
          26 17 1 6 -1.</_>
        <_>
          26 19 1 2 3.</_></rects>
      <tilted>0</tilted></_>
    <_>
      <rects>
        <_>
          26 19 1 4 -1.</_>
        <_>
          26 21 1 2 2.</_></rects>
      <tilted>0</tilted></_>
    <_>
      <rects>
        <_>
          26 21 10 3 -1.</_>
        <_>
          31 21 5 3 2.</_></rects>
      <tilted>0</tilted></_>
    <_>
      <rects>
        <_>
          26 21 7 3 -1.</_>
        <_>
          26 22 7 1 3.</_></rects>
      <tilted>0</tilted></_>
    <_>
      <rects>
        <_>
          27 2 4 1 -1.</_>
        <_>
          29 2 2 1 2.</_></rects>
      <tilted>0</tilted></_>
    <_>
      <rects>
        <_>
          27 11 2 3 -1.</_>
        <_>
          27 12 2 1 3.</_></rects>
      <tilted>0</tilted></_>
    <_>
      <rects>
        <_>
          27 16 6 3 -1.</_>
        <_>
          29 16 2 3 3.</_></rects>
      <tilted>0</tilted></_>
    <_>
      <rects>
        <_>
          27 19 5 4 -1.</_>
        <_>
          27 21 5 2 2.</_></rects>
      <tilted>0</tilted></_>
    <_>
      <rects>
        <_>
          27 23 2 1 -1.</_>
        <_>
          28 23 1 1 2.</_></rects>
      <tilted>0</tilted></_>
    <_>
      <rects>
        <_>
          27 23 6 1 -1.</_>
        <_>
          30 23 3 1 2.</_></rects>
      <tilted>0</tilted></_>
    <_>
      <rects>
        <_>
          28 7 3 6 -1.</_>
        <_>
          28 9 3 2 3.</_></rects>
      <tilted>0</tilted></_>
    <_>
      <rects>
        <_>
          28 12 6 6 -1.</_>
        <_>
          28 12 3 3 2.</_>
        <_>
          31 15 3 3 2.</_></rects>
      <tilted>0</tilted></_>
    <_>
      <rects>
        <_>
          28 20 3 4 -1.</_>
        <_>
          29 20 1 4 3.</_></rects>
      <tilted>0</tilted></_>
    <_>
      <rects>
        <_>
          28 21 2 3 -1.</_>
        <_>
          28 22 2 1 3.</_></rects>
      <tilted>0</tilted></_>
    <_>
      <rects>
        <_>
          29 7 6 8 -1.</_>
        <_>
          31 7 2 8 3.</_></rects>
      <tilted>0</tilted></_>
    <_>
      <rects>
        <_>
          29 16 6 5 -1.</_>
        <_>
          31 16 2 5 3.</_></rects>
      <tilted>0</tilted></_>
    <_>
      <rects>
        <_>
          29 17 2 4 -1.</_>
        <_>
          29 19 2 2 2.</_></rects>
      <tilted>0</tilted></_>
    <_>
      <rects>
        <_>
          29 18 2 5 -1.</_>
        <_>
          30 18 1 5 2.</_></rects>
      <tilted>0</tilted></_>
    <_>
      <rects>
        <_>
          29 20 2 4 -1.</_>
        <_>
          30 20 1 4 2.</_></rects>
      <tilted>0</tilted></_>
    <_>
      <rects>
        <_>
          29 23 3 1 -1.</_>
        <_>
          30 23 1 1 3.</_></rects>
      <tilted>0</tilted></_>
    <_>
      <rects>
        <_>
          29 23 6 1 -1.</_>
        <_>
          31 23 2 1 3.</_></rects>
      <tilted>0</tilted></_>
    <_>
      <rects>
        <_>
          30 3 4 18 -1.</_>
        <_>
          32 3 2 18 2.</_></rects>
      <tilted>0</tilted></_>
    <_>
      <rects>
        <_>
          30 4 6 20 -1.</_>
        <_>
          33 4 3 20 2.</_></rects>
      <tilted>0</tilted></_>
    <_>
      <rects>
        <_>
          30 10 6 5 -1.</_>
        <_>
          33 10 3 5 2.</_></rects>
      <tilted>0</tilted></_>
    <_>
      <rects>
        <_>
          30 11 6 12 -1.</_>
        <_>
          33 11 3 12 2.</_></rects>
      <tilted>0</tilted></_>
    <_>
      <rects>
        <_>
          30 15 6 2 -1.</_>
        <_>
          32 15 2 2 3.</_></rects>
      <tilted>0</tilted></_>
    <_>
      <rects>
        <_>
          30 17 2 2 -1.</_>
        <_>
          30 17 1 1 2.</_>
        <_>
          31 18 1 1 2.</_></rects>
      <tilted>0</tilted></_>
    <_>
      <rects>
        <_>
          30 18 4 4 -1.</_>
        <_>
          30 18 2 2 2.</_>
        <_>
          32 20 2 2 2.</_></rects>
      <tilted>0</tilted></_>
    <_>
      <rects>
        <_>
          31 2 2 6 -1.</_>
        <_>
          31 2 1 3 2.</_>
        <_>
          32 5 1 3 2.</_></rects>
      <tilted>0</tilted></_>
    <_>
      <rects>
        <_>
          31 13 2 5 -1.</_>
        <_>
          32 13 1 5 2.</_></rects>
      <tilted>0</tilted></_>
    <_>
      <rects>
        <_>
          31 20 2 2 -1.</_>
        <_>
          31 20 1 1 2.</_>
        <_>
          32 21 1 1 2.</_></rects>
      <tilted>0</tilted></_>
    <_>
      <rects>
        <_>
          31 21 4 2 -1.</_>
        <_>
          31 21 2 1 2.</_>
        <_>
          33 22 2 1 2.</_></rects>
      <tilted>0</tilted></_>
    <_>
      <rects>
        <_>
          32 0 2 22 -1.</_>
        <_>
          32 11 2 11 2.</_></rects>
      <tilted>0</tilted></_>
    <_>
      <rects>
        <_>
          32 9 2 14 -1.</_>
        <_>
          33 9 1 14 2.</_></rects>
      <tilted>0</tilted></_>
    <_>
      <rects>
        <_>
          32 18 4 6 -1.</_>
        <_>
          32 21 4 3 2.</_></rects>
      <tilted>0</tilted></_>
    <_>
      <rects>
        <_>
          33 3 1 3 -1.</_>
        <_>
          33 4 1 1 3.</_></rects>
      <tilted>0</tilted></_>
    <_>
      <rects>
        <_>
          33 15 3 6 -1.</_>
        <_>
          34 15 1 6 3.</_></rects>
      <tilted>0</tilted></_>
    <_>
      <rects>
        <_>
          33 15 3 3 -1.</_>
        <_>
          33 16 3 1 3.</_></rects>
      <tilted>0</tilted></_>
    <_>
      <rects>
        <_>
          33 18 3 3 -1.</_>
        <_>
          33 19 3 1 3.</_></rects>
      <tilted>0</tilted></_>
    <_>
      <rects>
        <_>
          34 0 1 6 -1.</_>
        <_>
          34 3 1 3 2.</_></rects>
      <tilted>0</tilted></_>
    <_>
      <rects>
        <_>
          34 0 1 12 -1.</_>
        <_>
          34 4 1 4 3.</_></rects>
      <tilted>0</tilted></_>
    <_>
      <rects>
        <_>
          34 2 2 4 -1.</_>
        <_>
          34 2 1 2 2.</_>
        <_>
          35 4 1 2 2.</_></rects>
      <tilted>0</tilted></_>
    <_>
      <rects>
        <_>
          34 2 2 9 -1.</_>
        <_>
          34 5 2 3 3.</_></rects>
      <tilted>0</tilted></_>
    <_>
      <rects>
        <_>
          34 3 2 4 -1.</_>
        <_>
          34 3 1 2 2.</_>
        <_>
          35 5 1 2 2.</_></rects>
      <tilted>0</tilted></_>
    <_>
      <rects>
        <_>
          34 13 2 9 -1.</_>
        <_>
          35 13 1 9 2.</_></rects>
      <tilted>0</tilted></_>
    <_>
      <rects>
        <_>
          34 13 2 10 -1.</_>
        <_>
          34 18 2 5 2.</_></rects>
      <tilted>0</tilted></_>
    <_>
      <rects>
        <_>
          34 14 2 8 -1.</_>
        <_>
          35 14 1 8 2.</_></rects>
      <tilted>0</tilted></_>
    <_>
      <rects>
        <_>
          34 15 2 6 -1.</_>
        <_>
          35 15 1 6 2.</_></rects>
      <tilted>0</tilted></_>
    <_>
      <rects>
        <_>
          34 16 2 2 -1.</_>
        <_>
          34 17 2 1 2.</_></rects>
      <tilted>0</tilted></_>
    <_>
      <rects>
        <_>
          34 18 2 3 -1.</_>
        <_>
          34 19 2 1 3.</_></rects>
      <tilted>0</tilted></_>
    <_>
      <rects>
        <_>
          34 21 2 2 -1.</_>
        <_>
          35 21 1 2 2.</_></rects>
      <tilted>0</tilted></_>
    <_>
      <rects>
        <_>
          34 22 2 2 -1.</_>
        <_>
          34 23 2 1 2.</_></rects>
      <tilted>0</tilted></_>
    <_>
      <rects>
        <_>
          35 0 1 6 -1.</_>
        <_>
          35 3 1 3 2.</_></rects>
      <tilted>0</tilted></_>
    <_>
      <rects>
        <_>
          35 1 1 12 -1.</_>
        <_>
          35 5 1 4 3.</_></rects>
      <tilted>0</tilted></_>
    <_>
      <rects>
        <_>
